[
{"children_left": [1,-1,3,5,-1,7,9,-1,11,-1,-1,-1,13,-1,-1],
"children_right": [2,-1,4,6,-1,8,10,-1,12,-1,-1,-1,14,-1,-1],
"feature": [1,-1,4,2,-1,6,7,-1,0,-1,-1,-1,4,-1,-1],
"threshold": [280.0,-1.0,28280.0,4676.398499999999,-1.0,810.0,2.527,-1.0,735.0,-1.0,-1.0,-1.0,5390.0,-1.0,-1.0],
"value": [0.48444444444444446,0.0,0.7956204379562044,0.44,1.0,0.1935483870967742,0.8421052631578947,1.0,0.10714285714285714,0.0,1.0,0.0,0.5,0.0,1.0],
"node_sample_weight": [225.0,88.0,137.0,50.0,87.0,31.0,19.0,3.0,28.0,3.0,16.0,22.0,6.0,3.0,3.0]},
{"children_left": [1,-1,3,-1,-1],
"children_right": [2,-1,4,-1,-1],
"feature": [1,-1,0,-1,-1],
"threshold": [130.0,-1.0,735.0,-1.0,-1.0],
"value": [0.49333333333333335,0.0,0.7655172413793103,0.1724137931034483,0.9137931034482759],
"node_sample_weight": [225.0,80.0,145.0,29.0,116.0]},
{"children_left": [1,-1,3,-1,-1],
"children_right": [2,-1,4,-1,-1],
"feature": [1,-1,0,-1,-1],
"threshold": [130.0,-1.0,755.0,-1.0,-1.0],
"value": [0.48444444444444446,0.0,0.8134328358208955,0.09090909090909091,0.9553571428571429],
"node_sample_weight": [225.0,91.0,134.0,22.0,112.0]},
{"children_left": [1,-1,3,-1,5,7,-1,-1,-1],
"children_right": [2,-1,4,-1,6,8,-1,-1,-1],
"feature": [1,-1,2,-1,4,4,-1,-1,-1],
"threshold": [980.0,-1.0,825.0,-1.0,20020.0,13075.0,-1.0,-1.0,-1.0],
"value": [0.4666666666666667,0.02197802197802198,0.7686567164179104,0.043478260869565216,0.918918918918919,0.6666666666666666,0.9777777777777777,1.0,0.2222222222222222],
"node_sample_weight": [225.0,91.0,134.0,23.0,111.0,21.0,90.0,12.0,9.0]},
{"children_left": [1,-1,3,-1,-1],
"children_right": [2,-1,4,-1,-1],
"feature": [1,-1,0,-1,-1],
"threshold": [980.0,-1.0,735.0,-1.0,-1.0],
"value": [0.4622222222222222,0.0,0.7647058823529411,0.1,0.9528301886792453],
"node_sample_weight": [225.0,89.0,136.0,30.0,106.0]},
{"children_left": [1,-1,3,-1,-1],
"children_right": [2,-1,4,-1,-1],
"feature": [1,-1,0,-1,-1],
"threshold": [130.0,-1.0,735.0,-1.0,-1.0],
"value": [0.5644444444444444,0.0,0.8246753246753247,0.0,0.9621212121212122],
"node_sample_weight": [225.0,71.0,154.0,22.0,132.0]},
{"children_left": [1,-1,3,-1,5,7,-1,-1,-1],
"children_right": [2,-1,4,-1,6,8,-1,-1,-1],
"feature": [1,-1,0,-1,8,1,-1,-1,-1],
"threshold": [130.0,-1.0,755.0,-1.0,-39201.1285,16660.0,-1.0,-1.0,-1.0],
"value": [0.52,0.0,0.7647058823529411,0.05555555555555555,0.9829059829059829,0.7777777777777778,1.0,0.3333333333333333,1.0],
"node_sample_weight": [225.0,72.0,153.0,36.0,117.0,9.0,108.0,3.0,6.0]},
{"children_left": [1,-1,3,-1,-1],
"children_right": [2,-1,4,-1,-1],
"feature": [1,-1,2,-1,-1],
"threshold": [980.0,-1.0,802.5,-1.0,-1.0],
"value": [0.5111111111111111,0.03488372093023256,0.8057553956834532,0.043478260869565216,0.9568965517241379],
"node_sample_weight": [225.0,86.0,139.0,23.0,116.0]},
{"children_left": [1,-1,3,-1,5,7,-1,9,-1,-1,-1],
"children_right": [2,-1,4,-1,6,8,-1,10,-1,-1,-1],
"feature": [1,-1,0,-1,7,4,-1,0,-1,-1,-1],
"threshold": [980.0,-1.0,755.0,-1.0,2.4383335,28280.0,-1.0,10360.0,-1.0,-1.0,-1.0],
"value": [0.4533333333333333,0.009433962264150943,0.8487394957983193,0.15789473684210525,0.98,0.875,1.0,0.5,1.0,1.0,0.0],
"node_sample_weight": [225.0,106.0,119.0,19.0,100.0,16.0,84.0,4.0,12.0,2.0,2.0]},
{"children_left": [1,3,5,-1,7,-1,9,-1,-1,11,-1,13,15,17,-1,-1,-1,-1,-1],
"children_right": [2,4,6,-1,8,-1,10,-1,-1,12,-1,14,16,18,-1,-1,-1,-1,-1],
"feature": [1,1,2,-1,0,-1,4,-1,-1,0,-1,4,3,1,-1,-1,-1,-1,-1],
"threshold": [2100.0,130.0,765.0,-1.0,11480.0,-1.0,53785.0,-1.0,-1.0,23240.0,-1.0,20160.0,7607.5,10080.0,-1.0,-1.0,-1.0,-1.0,-1.0],
"value": [0.4888888888888889,0.05660377358490566,0.8739495798319328,0.0,0.3,0.0,0.9369369369369369,0.125,1.0,0.8793103448275862,1.0,0.9375,0.6,0.8125,1.0,1.0,0.3333333333333333,0.9285714285714286,0.0],
"node_sample_weight": [225.0,106.0,119.0,86.0,20.0,8.0,111.0,16.0,4.0,58.0,53.0,48.0,10.0,16.0,32.0,4.0,6.0,14.0,2.0]},
{"children_left": [1,3,5,-1,7,-1,-1,-1,9,-1,-1],
"children_right": [2,4,6,-1,8,-1,-1,-1,10,-1,-1],
"feature": [4,1,1,-1,2,-1,-1,-1,1,-1,-1],
"threshold": [22120.0,1270.0,280.0,-1.0,1242.5,-1.0,-1.0,-1.0,10920.0,-1.0,-1.0],
"value": [0.5066666666666667,0.10344827586206896,0.9357798165137615,0.011494252873563218,0.3793103448275862,0.0,0.9902912621359223,0.0,0.6875,1.0,0.0],
"node_sample_weight": [225.0,116.0,109.0,87.0,29.0,6.0,103.0,13.0,16.0,11.0,5.0]},
{"children_left": [1,-1,3,-1,5,7,-1,-1,9,-1,-1],
"children_right": [2,-1,4,-1,6,8,-1,-1,10,-1,-1],
"feature": [1,-1,0,-1,1,3,-1,-1,0,-1,-1],
"threshold": [840.0,-1.0,755.0,-1.0,12040.0,8028.5995,-1.0,-1.0,22680.0,-1.0,-1.0],
"value": [0.4533333333333333,0.010416666666666666,0.7829457364341085,0.11538461538461539,0.9514563106796117,0.8780487804878049,1.0,1.0,0.6428571428571429,0.8181818181818182,0.0],
"node_sample_weight": [225.0,96.0,129.0,26.0,103.0,41.0,62.0,27.0,14.0,11.0,3.0]},
{"children_left": [1,-1,3,-1,-1],
"children_right": [2,-1,4,-1,-1],
"feature": [1,-1,2,-1,-1],
"threshold": [130.0,-1.0,720.0,-1.0,-1.0],
"value": [0.5066666666666667,0.0,0.8201438848920863,0.14285714285714285,0.940677966101695],
"node_sample_weight": [225.0,86.0,139.0,21.0,118.0]},
{"children_left": [1,-1,3,-1,-1],
"children_right": [2,-1,4,-1,-1],
"feature": [1,-1,2,-1,-1],
"threshold": [980.0,-1.0,709.69922,-1.0,-1.0],
"value": [0.52,0.0,0.8602941176470589,0.0,0.9590163934426229],
"node_sample_weight": [225.0,89.0,136.0,14.0,122.0]},
{"children_left": [1,-1,3,-1,5,7,-1,-1,9,-1,-1],
"children_right": [2,-1,4,-1,6,8,-1,-1,10,-1,-1],
"feature": [1,-1,0,-1,4,5,-1,-1,0,-1,-1],
"threshold": [980.0,-1.0,370.0,-1.0,32900.0,33488.0,-1.0,-1.0,21305.0,-1.0,-1.0],
"value": [0.5244444444444445,0.022988505747126436,0.8405797101449275,0.17391304347826086,0.9739130434782609,0.9166666666666666,1.0,1.0,0.5,0.75,0.0],
"node_sample_weight": [225.0,87.0,138.0,23.0,115.0,36.0,79.0,30.0,6.0,4.0,2.0]},
{"children_left": [1,-1,3,5,-1,-1,-1],
"children_right": [2,-1,4,6,-1,-1,-1],
"feature": [1,-1,0,6,-1,-1,-1],
"threshold": [130.0,-1.0,735.0,1800.0,-1.0,-1.0,-1.0],
"value": [0.5422222222222223,0.0,0.8472222222222222,0.13636363636363635,0.9754098360655737,1.0,0.05],
"node_sample_weight": [225.0,81.0,144.0,22.0,122.0,2.0,20.0]},
{"children_left": [1,-1,3,-1,-1],
"children_right": [2,-1,4,-1,-1],
"feature": [1,-1,2,-1,-1],
"threshold": [980.0,-1.0,825.0,-1.0,-1.0],
"value": [0.5022222222222222,0.011494252873563218,0.8115942028985508,0.14285714285714285,0.9316239316239316],
"node_sample_weight": [225.0,87.0,138.0,21.0,117.0]},
{"children_left": [1,3,5,-1,-1,7,9,-1,-1,11,-1,-1,-1],
"children_right": [2,4,6,-1,-1,8,10,-1,-1,12,-1,-1,-1],
"feature": [1,6,2,-1,-1,6,7,-1,-1,7,-1,-1,-1],
"threshold": [980.0,107535.0,1558.33495,-1.0,-1.0,2020.0,3.3516002,-1.0,-1.0,3.059,-1.0,-1.0,-1.0],
"value": [0.48,0.021505376344086023,0.803030303030303,0.0,0.6666666666666666,0.08333333333333333,0.9629629629629629,1.0,0.0,0.8709677419354839,1.0,0.9642857142857143,0.0],
"node_sample_weight": [225.0,93.0,132.0,90.0,3.0,24.0,108.0,2.0,22.0,31.0,77.0,28.0,3.0]},
{"children_left": [1,-1,3,5,-1,-1,-1],
"children_right": [2,-1,4,6,-1,-1,-1],
"feature": [1,-1,0,3,-1,-1,-1],
"threshold": [980.0,-1.0,755.0,1950.0,-1.0,-1.0,-1.0],
"value": [0.48444444444444446,0.01098901098901099,0.8059701492537313,0.13043478260869565,0.9459459459459459,1.0,0.047619047619047616],
"node_sample_weight": [225.0,91.0,134.0,23.0,111.0,2.0,21.0]},
{"children_left": [1,-1,3,-1,-1],
"children_right": [2,-1,4,-1,-1],
"feature": [1,-1,0,-1,-1],
"threshold": [980.0,-1.0,755.0,-1.0,-1.0],
"value": [0.5066666666666667,0.011627906976744186,0.8129496402877698,0.0,0.9576271186440678],
"node_sample_weight": [225.0,86.0,139.0,21.0,118.0]},
{"children_left": [1,-1,3,-1,5,-1,7,9,-1,-1,-1],
"children_right": [2,-1,4,-1,6,-1,8,10,-1,-1,-1],
"feature": [1,-1,2,-1,0,-1,3,3,-1,-1,-1],
"threshold": [980.0,-1.0,792.19922,-1.0,455.0,-1.0,9117.5,7708.75,-1.0,-1.0,-1.0],
"value": [0.5422222222222223,0.023255813953488372,0.8633093525179856,0.1111111111111111,0.9752066115702479,0.5,0.9831932773109243,0.95,1.0,1.0,0.3333333333333333],
"node_sample_weight": [225.0,86.0,139.0,18.0,121.0,2.0,119.0,40.0,79.0,37.0,3.0]},
{"children_left": [1,-1,3,-1,5,7,-1,-1,-1],
"children_right": [2,-1,4,-1,6,8,-1,-1,-1],
"feature": [1,-1,0,-1,1,3,-1,-1,-1],
"threshold": [980.0,-1.0,735.0,-1.0,6020.0,7638.75,-1.0,-1.0,-1.0],
"value": [0.4888888888888889,0.010309278350515464,0.8515625,0.1111111111111111,0.9727272727272728,0.896551724137931,1.0,0.9615384615384616,0.3333333333333333],
"node_sample_weight": [225.0,97.0,128.0,18.0,110.0,29.0,81.0,26.0,3.0]},
{"children_left": [1,-1,3,5,-1,-1,-1],
"children_right": [2,-1,4,6,-1,-1,-1],
"feature": [1,-1,0,6,-1,-1,-1],
"threshold": [980.0,-1.0,1205.0,2020.0,-1.0,-1.0,-1.0],
"value": [0.5155555555555555,0.011627906976744186,0.8273381294964028,0.14285714285714285,1.0,1.0,0.04],
"node_sample_weight": [225.0,86.0,139.0,28.0,111.0,3.0,25.0]},
{"children_left": [1,-1,3,5,-1,-1,-1],
"children_right": [2,-1,4,6,-1,-1,-1],
"feature": [1,-1,0,2,-1,-1,-1],
"threshold": [130.0,-1.0,925.0,8632.2335,-1.0,-1.0,-1.0],
"value": [0.4533333333333333,0.0,0.75,0.125,0.9423076923076923,0.06666666666666667,1.0],
"node_sample_weight": [225.0,89.0,136.0,32.0,104.0,30.0,2.0]},
{"children_left": [1,3,5,-1,7,-1,-1,-1,9,-1,-1],
"children_right": [2,4,6,-1,8,-1,-1,-1,10,-1,-1],
"feature": [4,1,1,-1,0,-1,-1,-1,1,-1,-1],
"threshold": [25900.0,2100.0,280.0,-1.0,735.0,-1.0,-1.0,-1.0,10080.0,-1.0,-1.0],
"value": [0.5022222222222222,0.10084033613445378,0.9528301886792453,0.0,0.36363636363636365,0.0,0.9901960784313726,0.05,0.8461538461538461,1.0,0.3333333333333333],
"node_sample_weight": [225.0,119.0,106.0,86.0,33.0,4.0,102.0,20.0,13.0,10.0,3.0]},
{"children_left": [1,3,5,-1,7,-1,9,-1,-1,11,-1,-1,-1],
"children_right": [2,4,6,-1,8,-1,10,-1,-1,12,-1,-1,-1],
"feature": [4,1,1,-1,0,-1,4,-1,-1,4,-1,-1,-1],
"threshold": [21560.0,280.0,280.0,-1.0,925.0,-1.0,28280.0,-1.0,-1.0,24835.0,-1.0,-1.0,-1.0],
"value": [0.4888888888888889,0.125,0.9047619047619048,0.0,0.3191489361702128,0.0,0.979381443298969,0.0967741935483871,0.75,0.8,1.0,1.0,0.3333333333333333],
"node_sample_weight": [225.0,120.0,105.0,73.0,47.0,8.0,97.0,31.0,16.0,10.0,87.0,7.0,3.0]},
{"children_left": [1,-1,3,-1,5,7,-1,9,-1,-1,-1],
"children_right": [2,-1,4,-1,6,8,-1,10,-1,-1,-1],
"feature": [1,-1,0,-1,4,8,-1,0,-1,-1,-1],
"threshold": [280.0,-1.0,755.0,-1.0,32900.0,0.26600003499999997,-1.0,21280.0,-1.0,-1.0,-1.0],
"value": [0.5377777777777778,0.0,0.852112676056338,0.15,0.9672131147540983,0.8974358974358975,1.0,0.7333333333333333,1.0,0.8461538461538461,0.0],
"node_sample_weight": [225.0,83.0,142.0,20.0,122.0,39.0,83.0,15.0,24.0,13.0,2.0]},
{"children_left": [1,-1,3,-1,-1],
"children_right": [2,-1,4,-1,-1],
"feature": [1,-1,2,-1,-1],
"threshold": [980.0,-1.0,7363.25,-1.0,-1.0],
"value": [0.5333333333333333,0.043478260869565216,0.8721804511278195,0.3333333333333333,0.9908256880733946],
"node_sample_weight": [225.0,92.0,133.0,24.0,109.0]},
{"children_left": [1,-1,3,-1,-1],
"children_right": [2,-1,4,-1,-1],
"feature": [1,-1,0,-1,-1],
"threshold": [980.0,-1.0,735.0,-1.0,-1.0],
"value": [0.48,0.021505376344086023,0.803030303030303,0.0,0.9814814814814815],
"node_sample_weight": [225.0,93.0,132.0,24.0,108.0]},
{"children_left": [1,-1,3,5,-1,-1,-1],
"children_right": [2,-1,4,6,-1,-1,-1],
"feature": [1,-1,2,6,-1,-1,-1],
"threshold": [130.0,-1.0,765.0,1720.0,-1.0,-1.0,-1.0],
"value": [0.49777777777777776,0.0,0.7724137931034483,0.12,0.9083333333333333,1.0,0.0],
"node_sample_weight": [225.0,80.0,145.0,25.0,120.0,3.0,22.0]},
{"children_left": [1,-1,3,-1,-1],
"children_right": [2,-1,4,-1,-1],
"feature": [1,-1,0,-1,-1],
"threshold": [980.0,-1.0,130.0,-1.0,-1.0],
"value": [0.5066666666666667,0.011494252873563218,0.8188405797101449,0.047619047619047616,0.9572649572649573],
"node_sample_weight": [225.0,87.0,138.0,21.0,117.0]},
{"children_left": [1,3,5,-1,7,-1,-1,9,-1,-1,-1],
"children_right": [2,4,6,-1,8,-1,-1,10,-1,-1,-1],
"feature": [4,1,1,-1,1,-1,-1,8,-1,-1,-1],
"threshold": [21560.0,980.0,130.0,-1.0,9240.0,-1.0,-1.0,-39199.734,-1.0,-1.0,-1.0],
"value": [0.5066666666666667,0.12389380530973451,0.8928571428571429,0.012658227848101266,0.38235294117647056,0.0,0.9803921568627451,0.5909090909090909,0.0,0.0,0.8125],
"node_sample_weight": [225.0,113.0,112.0,79.0,34.0,10.0,102.0,22.0,12.0,6.0,16.0]},
{"children_left": [1,-1,3,-1,5,7,-1,9,-1,-1,11,-1,-1],
"children_right": [2,-1,4,-1,6,8,-1,10,-1,-1,12,-1,-1],
"feature": [1,-1,2,-1,4,2,-1,3,-1,-1,1,-1,-1],
"threshold": [840.0,-1.0,802.5,-1.0,28280.0,28093.298499999997,-1.0,11147.5,-1.0,-1.0,14420.0,-1.0,-1.0],
"value": [0.4888888888888889,0.02127659574468085,0.8244274809160306,0.05,0.963963963963964,0.8461538461538461,1.0,0.9166666666666666,0.0,1.0,0.6666666666666666,0.3333333333333333,1.0],
"node_sample_weight": [225.0,94.0,131.0,20.0,111.0,26.0,85.0,24.0,2.0,18.0,6.0,3.0,3.0]},
{"children_left": [1,-1,3,-1,-1],
"children_right": [2,-1,4,-1,-1],
"feature": [1,-1,0,-1,-1],
"threshold": [840.0,-1.0,735.0,-1.0,-1.0],
"value": [0.48444444444444446,0.020202020202020204,0.8492063492063492,0.2,0.9716981132075472],
"node_sample_weight": [225.0,99.0,126.0,20.0,106.0]},
{"children_left": [1,-1,3,5,-1,-1,-1],
"children_right": [2,-1,4,6,-1,-1,-1],
"feature": [1,-1,0,3,-1,-1,-1],
"threshold": [980.0,-1.0,735.0,1753.0996,-1.0,-1.0,-1.0],
"value": [0.48,0.01098901098901099,0.7985074626865671,0.11538461538461539,0.9629629629629629,1.0,0.0],
"node_sample_weight": [225.0,91.0,134.0,26.0,108.0,3.0,23.0]},
{"children_left": [1,3,5,-1,7,9,11,-1,-1,-1,13,15,-1,-1,-1,-1,17,19,-1,-1,-1],
"children_right": [2,4,6,-1,8,10,12,-1,-1,-1,14,16,-1,-1,-1,-1,18,20,-1,-1,-1],
"feature": [1,1,0,-1,0,6,1,-1,-1,-1,2,3,-1,-1,-1,-1,0,1,-1,-1,-1],
"threshold": [980.0,280.0,755.0,-1.0,6335.0,1900.0,12180.0,-1.0,-1.0,-1.0,8632.2335,7708.75,-1.0,-1.0,-1.0,-1.0,22425.0,10920.0,-1.0,-1.0,-1.0],
"value": [0.4888888888888889,0.02127659574468085,0.8244274809160306,0.0,0.2,0.375,0.9252336448598131,0.0,1.0,1.0,0.21052631578947367,0.84,1.0,0.0,1.0,0.9722222222222222,0.5,0.7777777777777778,0.0,1.0,0.0],
"node_sample_weight": [225.0,94.0,131.0,84.0,10.0,24.0,107.0,8.0,2.0,5.0,19.0,50.0,57.0,15.0,4.0,36.0,14.0,9.0,5.0,7.0,2.0]},
{"children_left": [1,3,5,-1,-1,7,9,-1,-1,11,-1,-1,13,-1,-1],
"children_right": [2,4,6,-1,-1,8,10,-1,-1,12,-1,-1,14,-1,-1],
"feature": [1,0,0,-1,-1,6,1,-1,-1,3,-1,-1,3,-1,-1],
"threshold": [980.0,69745.0,735.0,-1.0,-1.0,1040.0,12180.0,-1.0,-1.0,8028.5995,-1.0,-1.0,9117.5,-1.0,-1.0],
"value": [0.5155555555555555,0.024096385542168676,0.8028169014084507,0.0,1.0,0.11538461538461539,0.9568965517241379,1.0,0.041666666666666664,0.9038461538461539,1.0,1.0,0.6666666666666666,0.0,0.8333333333333334],
"node_sample_weight": [225.0,83.0,142.0,81.0,2.0,26.0,116.0,2.0,24.0,52.0,64.0,37.0,15.0,3.0,12.0]},
{"children_left": [1,-1,3,-1,-1],
"children_right": [2,-1,4,-1,-1],
"feature": [1,-1,2,-1,-1],
"threshold": [280.0,-1.0,1403.33495,-1.0,-1.0],
"value": [0.5155555555555555,0.0,0.7532467532467533,0.08823529411764706,0.9416666666666667],
"node_sample_weight": [225.0,71.0,154.0,34.0,120.0]},
{"children_left": [1,-1,3,-1,5,7,-1,9,-1,-1,-1],
"children_right": [2,-1,4,-1,6,8,-1,10,-1,-1,-1],
"feature": [1,-1,0,-1,4,8,-1,0,-1,-1,-1],
"threshold": [130.0,-1.0,840.0,-1.0,32900.0,0.26600003499999997,-1.0,21305.0,-1.0,-1.0,-1.0],
"value": [0.4888888888888889,0.0,0.7971014492753623,0.13636363636363635,0.9224137931034483,0.7804878048780488,1.0,0.6538461538461539,1.0,0.7391304347826086,0.0],
"node_sample_weight": [225.0,87.0,138.0,22.0,116.0,41.0,75.0,26.0,15.0,23.0,3.0]},
{"children_left": [1,3,5,-1,7,-1,9,-1,11,-1,-1,-1,-1],
"children_right": [2,4,6,-1,8,-1,10,-1,12,-1,-1,-1,-1],
"feature": [4,1,1,-1,0,-1,0,-1,1,-1,-1,-1,-1],
"threshold": [21560.0,980.0,280.0,-1.0,755.0,-1.0,560.0,-1.0,10080.0,-1.0,-1.0,-1.0,-1.0],
"value": [0.5333333333333333,0.09259259259259259,0.9401709401709402,0.0,0.3333333333333333,0.0,0.9649122807017544,0.05263157894736842,0.8181818181818182,0.0,0.9821428571428571,1.0,0.0],
"node_sample_weight": [225.0,108.0,117.0,78.0,30.0,3.0,114.0,19.0,11.0,2.0,112.0,9.0,2.0]},
{"children_left": [1,-1,3,-1,-1],
"children_right": [2,-1,4,-1,-1],
"feature": [1,-1,0,-1,-1],
"threshold": [280.0,-1.0,755.0,-1.0,-1.0],
"value": [0.48,0.0,0.7397260273972602,0.08108108108108109,0.963302752293578],
"node_sample_weight": [225.0,79.0,146.0,37.0,109.0]},
{"children_left": [1,-1,3,-1,-1],
"children_right": [2,-1,4,-1,-1],
"feature": [1,-1,0,-1,-1],
"threshold": [130.0,-1.0,755.0,-1.0,-1.0],
"value": [0.49777777777777776,0.0,0.7724137931034483,0.0625,0.9734513274336283],
"node_sample_weight": [225.0,80.0,145.0,32.0,113.0]},
{"children_left": [1,-1,3,-1,5,7,-1,-1,-1],
"children_right": [2,-1,4,-1,6,8,-1,-1,-1],
"feature": [1,-1,2,-1,4,4,-1,-1,-1],
"threshold": [980.0,-1.0,825.0,-1.0,18760.0,13160.0,-1.0,-1.0,-1.0],
"value": [0.4888888888888889,0.0,0.8088235294117647,0.08333333333333333,0.9642857142857143,0.7647058823529411,1.0,1.0,0.0],
"node_sample_weight": [225.0,89.0,136.0,24.0,112.0,17.0,95.0,13.0,4.0]},
{"children_left": [1,-1,3,-1,-1],
"children_right": [2,-1,4,-1,-1],
"feature": [1,-1,2,-1,-1],
"threshold": [280.0,-1.0,825.0,-1.0,-1.0],
"value": [0.5111111111111111,0.0,0.8518518518518519,0.11764705882352941,0.9576271186440678],
"node_sample_weight": [225.0,90.0,135.0,17.0,118.0]},
{"children_left": [1,-1,3,-1,-1],
"children_right": [2,-1,4,-1,-1],
"feature": [1,-1,2,-1,-1],
"threshold": [840.0,-1.0,802.5,-1.0,-1.0],
"value": [0.5022222222222222,0.012658227848101266,0.7671232876712328,0.0,0.9824561403508771],
"node_sample_weight": [225.0,79.0,146.0,32.0,114.0]},
{"children_left": [1,3,5,-1,7,-1,-1,-1,-1],
"children_right": [2,4,6,-1,8,-1,-1,-1,-1],
"feature": [1,1,0,-1,4,-1,-1,-1,-1],
"threshold": [2100.0,280.0,455.0,-1.0,2435.0,-1.0,-1.0,-1.0,-1.0],
"value": [0.5066666666666667,0.09090909090909091,0.9043478260869565,0.0,0.35714285714285715,0.0,0.9719626168224299,0.0,0.9090909090909091],
"node_sample_weight": [225.0,110.0,115.0,82.0,28.0,8.0,107.0,17.0,11.0]},
{"children_left": [1,3,5,-1,7,-1,-1,-1,9,-1,11,13,-1,-1,-1],
"children_right": [2,4,6,-1,8,-1,-1,-1,10,-1,12,14,-1,-1,-1],
"feature": [4,1,1,-1,0,-1,-1,-1,8,-1,7,5,-1,-1,-1],
"threshold": [22530.0,980.0,130.0,-1.0,735.0,-1.0,-1.0,-1.0,-39200.034,-1.0,614.9959501,37485.5,-1.0,-1.0,-1.0],
"value": [0.49333333333333335,0.15079365079365079,0.9292929292929293,0.0,0.4418604651162791,0.0,1.0,0.0,0.76,0.0,0.8636363636363636,0.5714285714285714,1.0,0.25,1.0],
"node_sample_weight": [225.0,126.0,99.0,83.0,43.0,7.0,92.0,18.0,25.0,3.0,22.0,7.0,15.0,4.0,3.0]},
{"children_left": [1,-1,3,-1,-1],
"children_right": [2,-1,4,-1,-1],
"feature": [1,-1,0,-1,-1],
"threshold": [980.0,-1.0,735.0,-1.0,-1.0],
"value": [0.52,0.011627906976744186,0.8345323741007195,0.13636363636363635,0.9658119658119658],
"node_sample_weight": [225.0,86.0,139.0,22.0,117.0]},
{"children_left": [1,-1,3,-1,-1],
"children_right": [2,-1,4,-1,-1],
"feature": [1,-1,0,-1,-1],
"threshold": [1550.0,-1.0,130.0,-1.0,-1.0],
"value": [0.5066666666666667,0.058823529411764705,0.8780487804878049,0.0,0.9391304347826087],
"node_sample_weight": [225.0,102.0,123.0,8.0,115.0]},
{"children_left": [1,-1,3,-1,-1],
"children_right": [2,-1,4,-1,-1],
"feature": [1,-1,2,-1,-1],
"threshold": [840.0,-1.0,825.0,-1.0,-1.0],
"value": [0.4577777777777778,0.0,0.7803030303030303,0.07407407407407407,0.9619047619047619],
"node_sample_weight": [225.0,93.0,132.0,27.0,105.0]},
{"children_left": [1,-1,3,5,-1,7,-1,-1,-1],
"children_right": [2,-1,4,6,-1,8,-1,-1,-1],
"feature": [1,-1,0,2,-1,6,-1,-1,-1],
"threshold": [980.0,-1.0,735.0,7713.335,-1.0,1830.0,-1.0,-1.0,-1.0],
"value": [0.5288888888888889,0.0,0.8380281690140845,0.19230769230769232,0.9827586206896551,0.08695652173913043,1.0,1.0,0.0],
"node_sample_weight": [225.0,83.0,142.0,26.0,116.0,23.0,3.0,2.0,21.0]},
{"children_left": [1,-1,3,-1,-1],
"children_right": [2,-1,4,-1,-1],
"feature": [1,-1,0,-1,-1],
"threshold": [130.0,-1.0,755.0,-1.0,-1.0],
"value": [0.4488888888888889,0.0,0.7426470588235294,0.11764705882352941,0.9509803921568627],
"node_sample_weight": [225.0,89.0,136.0,34.0,102.0]},
{"children_left": [1,3,5,-1,7,-1,9,11,-1,-1,-1,-1,-1],
"children_right": [2,4,6,-1,8,-1,10,12,-1,-1,-1,-1,-1],
"feature": [4,1,1,-1,0,-1,0,3,-1,-1,-1,-1,-1],
"threshold": [18505.0,980.0,280.0,-1.0,1205.0,-1.0,130.0,2025.0,-1.0,-1.0,-1.0,-1.0,-1.0],
"value": [0.48444444444444446,0.08771929824561403,0.8918918918918919,0.0,0.3225806451612903,0.0,0.9801980198019802,0.09090909090909091,0.8888888888888888,0.5,1.0,1.0,0.0],
"node_sample_weight": [225.0,114.0,111.0,83.0,31.0,10.0,101.0,22.0,9.0,4.0,97.0,2.0,20.0]},
{"children_left": [1,-1,3,5,7,-1,-1,9,-1,11,-1,-1,-1],
"children_right": [2,-1,4,6,8,-1,-1,10,-1,12,-1,-1,-1],
"feature": [1,-1,2,6,4,-1,-1,0,-1,3,-1,-1,-1],
"threshold": [980.0,-1.0,802.5,1430.0,32900.0,-1.0,-1.0,22425.0,-1.0,27933.75,-1.0,-1.0,-1.0],
"value": [0.5244444444444445,0.011363636363636364,0.8540145985401459,0.11764705882352941,0.9583333333333334,1.0,0.0,0.8863636363636364,1.0,0.9512195121951219,0.0,1.0,0.5],
"node_sample_weight": [225.0,88.0,137.0,17.0,120.0,2.0,15.0,44.0,76.0,41.0,3.0,37.0,4.0]},
{"children_left": [1,-1,3,5,-1,7,-1,9,-1,-1,-1],
"children_right": [2,-1,4,6,-1,8,-1,10,-1,-1,-1],
"feature": [1,-1,0,2,-1,6,-1,1,-1,-1,-1],
"threshold": [280.0,-1.0,755.0,7124.16995,-1.0,1800.0,-1.0,840.0,-1.0,-1.0,-1.0],
"value": [0.48444444444444446,0.0,0.7676056338028169,0.125,0.9545454545454546,0.06666666666666667,1.0,0.4,0.0,0.0,1.0],
"node_sample_weight": [225.0,83.0,142.0,32.0,110.0,30.0,2.0,5.0,25.0,3.0,2.0]},
{"children_left": [1,-1,3,-1,-1],
"children_right": [2,-1,4,-1,-1],
"feature": [1,-1,2,-1,-1],
"threshold": [980.0,-1.0,765.0,-1.0,-1.0],
"value": [0.48444444444444446,0.03,0.848,0.11764705882352941,0.9629629629629629],
"node_sample_weight": [225.0,100.0,125.0,17.0,108.0]},
{"children_left": [1,-1,3,-1,-1],
"children_right": [2,-1,4,-1,-1],
"feature": [1,-1,0,-1,-1],
"threshold": [130.0,-1.0,735.0,-1.0,-1.0],
"value": [0.4888888888888889,0.0,0.7971014492753623,0.1111111111111111,0.963963963963964],
"node_sample_weight": [225.0,87.0,138.0,27.0,111.0]},
{"children_left": [1,-1,3,5,-1,-1,-1],
"children_right": [2,-1,4,6,-1,-1,-1],
"feature": [1,-1,0,2,-1,-1,-1],
"threshold": [280.0,-1.0,735.0,7713.335,-1.0,-1.0,-1.0],
"value": [0.4622222222222222,0.0,0.7761194029850746,0.1724137931034483,0.9428571428571428,0.08,0.75],
"node_sample_weight": [225.0,91.0,134.0,29.0,105.0,25.0,4.0]},
{"children_left": [1,-1,3,-1,-1],
"children_right": [2,-1,4,-1,-1],
"feature": [1,-1,0,-1,-1],
"threshold": [980.0,-1.0,755.0,-1.0,-1.0],
"value": [0.4622222222222222,0.0,0.7703703703703704,0.07692307692307693,0.9357798165137615],
"node_sample_weight": [225.0,90.0,135.0,26.0,109.0]},
{"children_left": [1,-1,3,5,-1,-1,-1],
"children_right": [2,-1,4,6,-1,-1,-1],
"feature": [1,-1,2,6,-1,-1,-1],
"threshold": [980.0,-1.0,792.19922,2290.0,-1.0,-1.0,-1.0],
"value": [0.5022222222222222,0.0,0.8625954198473282,0.11764705882352941,0.9736842105263158,1.0,0.0],
"node_sample_weight": [225.0,94.0,131.0,17.0,114.0,2.0,15.0]},
{"children_left": [1,-1,3,-1,-1],
"children_right": [2,-1,4,-1,-1],
"feature": [1,-1,0,-1,-1],
"threshold": [130.0,-1.0,735.0,-1.0,-1.0],
"value": [0.5155555555555555,0.0,0.8169014084507042,0.08333333333333333,0.9661016949152542],
"node_sample_weight": [225.0,83.0,142.0,24.0,118.0]},
{"children_left": [1,-1,3,-1,5,-1,-1],
"children_right": [2,-1,4,-1,6,-1,-1],
"feature": [1,-1,0,-1,2,-1,-1],
"threshold": [130.0,-1.0,735.0,-1.0,602.7988300000001,-1.0,-1.0],
"value": [0.52,0.0,0.7452229299363057,0.15384615384615385,0.940677966101695,0.0,0.9568965517241379],
"node_sample_weight": [225.0,68.0,157.0,39.0,118.0,2.0,116.0]},
{"children_left": [1,3,5,-1,7,-1,-1,-1,-1],
"children_right": [2,4,6,-1,8,-1,-1,-1,-1],
"feature": [1,1,2,-1,0,-1,-1,-1,-1],
"threshold": [980.0,130.0,754.69922,-1.0,4480.0,-1.0,-1.0,-1.0,-1.0],
"value": [0.49777777777777776,0.031914893617021274,0.8320610687022901,0.0,0.23076923076923078,0.1,0.963963963963964,0.0,1.0],
"node_sample_weight": [225.0,94.0,131.0,81.0,13.0,20.0,111.0,10.0,3.0]},
{"children_left": [1,-1,3,5,7,-1,-1,9,11,-1,-1,13,-1,-1,-1],
"children_right": [2,-1,4,6,8,-1,-1,10,12,-1,-1,14,-1,-1,-1],
"feature": [1,-1,2,2,0,-1,-1,2,8,-1,-1,5,-1,-1,-1],
"threshold": [130.0,-1.0,709.69922,7.5,735.0,-1.0,-1.0,7713.335,-39201.7305,-1.0,-1.0,43137.5,-1.0,-1.0,-1.0],
"value": [0.49333333333333335,0.0,0.8283582089552238,0.09090909090909091,0.9732142857142857,1.0,0.0,0.6,0.9906542056074766,0.0,1.0,0.9333333333333333,1.0,0.5,1.0],
"node_sample_weight": [225.0,91.0,134.0,22.0,112.0,2.0,20.0,5.0,107.0,2.0,3.0,15.0,92.0,2.0,13.0]},
{"children_left": [1,-1,3,5,-1,-1,-1],
"children_right": [2,-1,4,6,-1,-1,-1],
"feature": [1,-1,0,6,-1,-1,-1],
"threshold": [280.0,-1.0,755.0,1800.0,-1.0,-1.0,-1.0],
"value": [0.5377777777777778,0.0,0.7857142857142857,0.15151515151515152,0.9586776859504132,0.7142857142857143,0.0],
"node_sample_weight": [225.0,71.0,154.0,33.0,121.0,7.0,26.0]},
{"children_left": [1,3,5,-1,7,-1,-1,-1,-1],
"children_right": [2,4,6,-1,8,-1,-1,-1,-1],
"feature": [4,1,1,-1,2,-1,-1,-1,-1],
"threshold": [23100.0,280.0,130.0,-1.0,765.0,-1.0,-1.0,-1.0,-1.0],
"value": [0.52,0.11428571428571428,0.875,0.0,0.2857142857142857,0.0,0.9375,0.037037037037037035,0.7333333333333333],
"node_sample_weight": [225.0,105.0,120.0,63.0,42.0,8.0,112.0,27.0,15.0]},
{"children_left": [1,-1,3,5,7,-1,-1,9,-1,-1,11,-1,-1],
"children_right": [2,-1,4,6,8,-1,-1,10,-1,-1,12,-1,-1],
"feature": [1,-1,2,3,4,-1,-1,5,-1,-1,7,-1,-1],
"threshold": [840.0,-1.0,792.19922,1950.0,28280.0,-1.0,-1.0,26149.184999999998,-1.0,-1.0,3.3516002,-1.0,-1.0],
"value": [0.48444444444444446,0.0,0.8257575757575758,0.1,0.9553571428571429,1.0,0.0,0.84375,1.0,1.0,0.6666666666666666,0.2,0.9],
"node_sample_weight": [225.0,93.0,132.0,20.0,112.0,2.0,18.0,32.0,80.0,17.0,15.0,5.0,10.0]},
{"children_left": [1,-1,3,5,7,-1,-1,9,-1,11,-1,-1,-1],
"children_right": [2,-1,4,6,8,-1,-1,10,-1,12,-1,-1,-1],
"feature": [1,-1,2,6,8,-1,-1,4,-1,0,-1,-1,-1],
"threshold": [980.0,-1.0,825.0,1040.0,-2.1545999,-1.0,-1.0,36540.0,-1.0,22680.0,-1.0,-1.0,-1.0],
"value": [0.52,0.010638297872340425,0.8854961832061069,0.14285714285714285,0.9743589743589743,1.0,0.0,0.9302325581395349,1.0,0.8,1.0,0.9230769230769231,0.0],
"node_sample_weight": [225.0,94.0,131.0,14.0,117.0,2.0,12.0,43.0,74.0,15.0,28.0,13.0,2.0]},
{"children_left": [1,3,5,-1,7,-1,9,-1,11,-1,13,-1,-1,15,-1,-1,-1],
"children_right": [2,4,6,-1,8,-1,10,-1,12,-1,14,-1,-1,16,-1,-1,-1],
"feature": [4,1,1,-1,2,-1,0,-1,1,-1,1,-1,-1,0,-1,-1,-1],
"threshold": [20020.0,980.0,130.0,-1.0,1403.33495,-1.0,130.0,-1.0,10080.0,-1.0,6020.0,-1.0,-1.0,27160.0,-1.0,-1.0,-1.0],
"value": [0.5422222222222223,0.1346153846153846,0.8925619834710744,0.0,0.3888888888888889,0.0,0.9557522123893806,0.05263157894736842,0.7647058823529411,0.0,0.9818181818181818,1.0,0.2,0.8888888888888888,1.0,0.5,1.0],
"node_sample_weight": [225.0,104.0,121.0,68.0,36.0,8.0,113.0,19.0,17.0,3.0,110.0,12.0,5.0,18.0,92.0,4.0,14.0]},
{"children_left": [1,3,5,-1,7,-1,-1,-1,-1],
"children_right": [2,4,6,-1,8,-1,-1,-1,-1],
"feature": [1,0,2,-1,1,-1,-1,-1,-1],
"threshold": [980.0,26600.0,825.0,-1.0,130.0,-1.0,-1.0,-1.0,-1.0],
"value": [0.5066666666666667,0.03,0.888,0.0,0.3,0.1875,0.9908256880733946,0.0,1.0],
"node_sample_weight": [225.0,100.0,125.0,90.0,10.0,16.0,109.0,7.0,3.0]},
{"children_left": [1,-1,3,5,-1,-1,7,-1,-1],
"children_right": [2,-1,4,6,-1,-1,8,-1,-1],
"feature": [1,-1,0,5,-1,-1,3,-1,-1],
"threshold": [280.0,-1.0,735.0,18591.0,-1.0,-1.0,27840.0,-1.0,-1.0],
"value": [0.48444444444444446,0.0,0.7898550724637681,0.18181818181818182,0.9809523809523809,0.0,0.5,0.8571428571428571,0.0],
"node_sample_weight": [225.0,87.0,138.0,33.0,105.0,21.0,12.0,7.0,5.0]},
{"children_left": [1,3,5,-1,7,9,-1,-1,-1,-1,-1],
"children_right": [2,4,6,-1,8,10,-1,-1,-1,-1,-1],
"feature": [1,0,2,-1,1,6,-1,-1,-1,-1,-1],
"threshold": [980.0,47320.0,674.69922,-1.0,280.0,1830.0,-1.0,-1.0,-1.0,-1.0,-1.0],
"value": [0.5688888888888889,0.0379746835443038,0.8561643835616438,0.0,0.5,0.15,0.9682539682539683,0.0,1.0,1.0,0.0],
"node_sample_weight": [225.0,79.0,146.0,73.0,6.0,20.0,126.0,3.0,3.0,3.0,17.0]},
{"children_left": [1,-1,3,5,7,-1,9,-1,11,-1,13,15,-1,-1,-1,17,-1,-1,-1],
"children_right": [2,-1,4,6,8,-1,10,-1,12,-1,14,16,-1,-1,-1,18,-1,-1,-1],
"feature": [1,-1,0,3,8,-1,1,-1,7,-1,3,3,-1,-1,-1,8,-1,-1,-1],
"threshold": [980.0,-1.0,735.0,1950.0,-39201.1285,-1.0,16670.0,-1.0,3.3250001,-1.0,28034.4,8312.5,-1.0,-1.0,-1.0,-0.39899992500000003,-1.0,-1.0,-1.0],
"value": [0.5111111111111111,0.0,0.8214285714285714,0.3448275862068966,0.9459459459459459,1.0,0.09523809523809523,0.6666666666666666,0.9797979797979798,0.0,0.3333333333333333,0.9354838709677419,1.0,1.0,0.0,0.7777777777777778,1.0,0.0,1.0],
"node_sample_weight": [225.0,85.0,140.0,29.0,111.0,8.0,21.0,12.0,99.0,15.0,6.0,31.0,68.0,2.0,4.0,9.0,22.0,2.0,7.0]},
{"children_left": [1,-1,3,5,-1,-1,-1],
"children_right": [2,-1,4,6,-1,-1,-1],
"feature": [1,-1,0,6,-1,-1,-1],
"threshold": [130.0,-1.0,1205.0,930.0,-1.0,-1.0,-1.0],
"value": [0.4666666666666667,0.0,0.7291666666666666,0.18421052631578946,0.9245283018867925,1.0,0.06060606060606061],
"node_sample_weight": [225.0,81.0,144.0,38.0,106.0,5.0,33.0]},
{"children_left": [1,-1,3,-1,5,7,-1,9,-1,11,13,-1,-1,-1,15,-1,-1],
"children_right": [2,-1,4,-1,6,8,-1,10,-1,12,14,-1,-1,-1,16,-1,-1],
"feature": [1,-1,2,-1,4,8,-1,7,-1,2,7,-1,-1,-1,7,-1,-1],
"threshold": [130.0,-1.0,825.0,-1.0,54035.0,-0.365749985,-1.0,3.3959336,-1.0,16666.8985,39201.1285,-1.0,-1.0,-1.0,39745.8465,-1.0,-1.0],
"value": [0.4888888888888889,0.0,0.7971014492753623,0.08695652173913043,0.9391304347826087,0.8923076923076924,1.0,0.7692307692307693,0.9743589743589743,0.3333333333333333,0.9,0.0,0.6666666666666666,1.0,0.7142857142857143,0.3333333333333333,1.0],
"node_sample_weight": [225.0,87.0,138.0,23.0,115.0,65.0,50.0,26.0,39.0,6.0,20.0,3.0,3.0,13.0,7.0,3.0,4.0]},
{"children_left": [1,-1,3,5,7,-1,-1,9,-1,-1,-1],
"children_right": [2,-1,4,6,8,-1,-1,10,-1,-1,-1],
"feature": [1,-1,0,6,4,-1,-1,4,-1,-1,-1],
"threshold": [130.0,-1.0,735.0,1720.0,20020.0,-1.0,-1.0,11760.0,-1.0,-1.0,-1.0],
"value": [0.5244444444444445,0.0,0.8137931034482758,0.08,0.9666666666666667,0.6666666666666666,0.0,0.7142857142857143,1.0,1.0,0.2],
"node_sample_weight": [225.0,80.0,145.0,25.0,120.0,3.0,22.0,14.0,106.0,9.0,5.0]},
{"children_left": [1,3,5,-1,7,-1,9,-1,11,-1,13,-1,-1,15,-1,-1,17,-1,-1],
"children_right": [2,4,6,-1,8,-1,10,-1,12,-1,14,-1,-1,16,-1,-1,18,-1,-1],
"feature": [4,1,1,-1,0,-1,0,-1,0,-1,1,-1,-1,3,-1,-1,0,-1,-1],
"threshold": [18505.0,980.0,280.0,-1.0,755.0,-1.0,560.0,-1.0,11200.0,-1.0,9240.0,-1.0,-1.0,7552.5,-1.0,-1.0,22425.0,-1.0,-1.0],
"value": [0.49333333333333335,0.10810810810810811,0.868421052631579,0.0,0.3333333333333333,0.0,0.9252336448598131,0.047619047619047616,0.7333333333333333,0.0,0.9611650485436893,1.0,0.0,0.7894736842105263,1.0,1.0,0.42857142857142855,1.0,0.0],
"node_sample_weight": [225.0,111.0,114.0,75.0,36.0,7.0,107.0,21.0,15.0,4.0,103.0,11.0,4.0,19.0,84.0,12.0,7.0,3.0,4.0]},
{"children_left": [1,-1,3,5,-1,7,-1,-1,-1],
"children_right": [2,-1,4,6,-1,8,-1,-1,-1],
"feature": [1,-1,0,6,-1,1,-1,-1,-1],
"threshold": [130.0,-1.0,1400.0,2380.0,-1.0,980.0,-1.0,-1.0,-1.0],
"value": [0.5688888888888889,0.0,0.7950310559006211,0.125,0.9612403100775194,0.4444444444444444,0.0,0.0,1.0],
"node_sample_weight": [225.0,64.0,161.0,32.0,129.0,9.0,23.0,5.0,4.0]},
{"children_left": [1,-1,3,-1,5,7,-1,9,-1,-1,11,13,-1,-1,-1],
"children_right": [2,-1,4,-1,6,8,-1,10,-1,-1,12,14,-1,-1,-1],
"feature": [1,-1,0,-1,4,8,-1,5,-1,-1,6,4,-1,-1,-1],
"threshold": [980.0,-1.0,735.0,-1.0,28280.0,0.44333297,-1.0,17187.498,-1.0,-1.0,80995.0,22035.0,-1.0,-1.0,-1.0],
"value": [0.4666666666666667,0.011111111111111112,0.7703703703703704,0.1,0.9619047619047619,0.8518518518518519,1.0,0.6666666666666666,1.0,1.0,0.5,0.3333333333333333,1.0,0.0,0.6666666666666666],
"node_sample_weight": [225.0,90.0,135.0,30.0,105.0,27.0,78.0,12.0,15.0,4.0,8.0,6.0,2.0,3.0,3.0]},
{"children_left": [1,-1,3,5,-1,-1,-1],
"children_right": [2,-1,4,6,-1,-1,-1],
"feature": [1,-1,0,6,-1,-1,-1],
"threshold": [280.0,-1.0,755.0,1720.0,-1.0,-1.0,-1.0],
"value": [0.5155555555555555,0.0,0.8111888111888111,0.17857142857142858,0.9652173913043478,0.8,0.043478260869565216],
"node_sample_weight": [225.0,82.0,143.0,28.0,115.0,5.0,23.0]},
{"children_left": [1,-1,3,5,7,9,-1,11,-1,-1,-1,-1,-1],
"children_right": [2,-1,4,6,8,10,-1,12,-1,-1,-1,-1,-1],
"feature": [1,-1,0,2,4,6,-1,2,-1,-1,-1,-1,-1],
"threshold": [130.0,-1.0,1960.0,8497.449,20020.0,1800.0,-1.0,16480.8475,-1.0,-1.0,-1.0,-1.0,-1.0],
"value": [0.5022222222222222,0.0,0.795774647887324,0.1935483870967742,0.963963963963964,0.07692307692307693,0.8,0.5714285714285714,0.9903846153846154,0.6666666666666666,0.0,0.25,1.0],
"node_sample_weight": [225.0,83.0,142.0,31.0,111.0,26.0,5.0,7.0,104.0,3.0,23.0,4.0,3.0]},
{"children_left": [1,-1,3,-1,-1],
"children_right": [2,-1,4,-1,-1],
"feature": [1,-1,2,-1,-1],
"threshold": [980.0,-1.0,615.94922,-1.0,-1.0],
"value": [0.5155555555555555,0.0,0.8592592592592593,0.0,0.9508196721311475],
"node_sample_weight": [225.0,90.0,135.0,13.0,122.0]},
{"children_left": [1,-1,3,-1,5,7,-1,-1,9,-1,-1],
"children_right": [2,-1,4,-1,6,8,-1,-1,10,-1,-1],
"feature": [1,-1,0,-1,1,3,-1,-1,3,-1,-1],
"threshold": [280.0,-1.0,1960.0,-1.0,12180.0,8098.5995,-1.0,-1.0,8769.45,-1.0,-1.0],
"value": [0.5155555555555555,0.0,0.8345323741007195,0.3333333333333333,0.9724770642201835,0.926829268292683,1.0,1.0,0.8235294117647058,0.0,0.9333333333333333],
"node_sample_weight": [225.0,86.0,139.0,30.0,109.0,41.0,68.0,24.0,17.0,2.0,15.0]},
{"children_left": [1,-1,3,-1,5,7,-1,-1,9,-1,-1],
"children_right": [2,-1,4,-1,6,8,-1,-1,10,-1,-1],
"feature": [1,-1,2,-1,4,5,-1,-1,1,-1,-1],
"threshold": [980.0,-1.0,825.0,-1.0,32900.0,34000.5,-1.0,-1.0,3780.0,-1.0,-1.0],
"value": [0.49333333333333335,0.0,0.8102189781021898,0.08695652173913043,0.956140350877193,0.8484848484848485,1.0,0.9615384615384616,0.42857142857142855,1.0,0.0],
"node_sample_weight": [225.0,88.0,137.0,23.0,114.0,33.0,81.0,26.0,7.0,3.0,4.0]},
{"children_left": [1,-1,3,-1,-1],
"children_right": [2,-1,4,-1,-1],
"feature": [1,-1,0,-1,-1],
"threshold": [840.0,-1.0,735.0,-1.0,-1.0],
"value": [0.47555555555555556,0.011494252873563218,0.7681159420289855,0.16129032258064516,0.9439252336448598],
"node_sample_weight": [225.0,87.0,138.0,31.0,107.0]},
{"children_left": [1,3,5,-1,-1,-1,-1],
"children_right": [2,4,6,-1,-1,-1,-1],
"feature": [1,0,2,-1,-1,-1,-1],
"threshold": [980.0,47320.0,825.0,-1.0,-1.0,-1.0,-1.0],
"value": [0.52,0.03296703296703297,0.8507462686567164,0.011235955056179775,1.0,0.15,0.9736842105263158],
"node_sample_weight": [225.0,91.0,134.0,89.0,2.0,20.0,114.0]},
{"children_left": [1,3,5,-1,7,-1,-1,9,-1,11,-1,-1,-1],
"children_right": [2,4,6,-1,8,-1,-1,10,-1,12,-1,-1,-1],
"feature": [4,1,1,-1,0,-1,-1,8,-1,8,-1,-1,-1],
"threshold": [26905.0,280.0,130.0,-1.0,735.0,-1.0,-1.0,19599.865,-1.0,-1.2856664,-1.0,-1.0,-1.0],
"value": [0.49777777777777776,0.12698412698412698,0.9696969696969697,0.0,0.36363636363636365,0.0,1.0,0.07142857142857142,0.875,0.2857142857142857,0.0,0.0,1.0],
"node_sample_weight": [225.0,126.0,99.0,82.0,44.0,3.0,96.0,28.0,16.0,7.0,21.0,5.0,2.0]},
{"children_left": [1,-1,3,-1,-1],
"children_right": [2,-1,4,-1,-1],
"feature": [1,-1,2,-1,-1],
"threshold": [280.0,-1.0,1582.5,-1.0,-1.0],
"value": [0.4666666666666667,0.0,0.7835820895522388,0.1935483870967742,0.9611650485436893],
"node_sample_weight": [225.0,91.0,134.0,31.0,103.0]},
{"children_left": [1,-1,3,-1,-1],
"children_right": [2,-1,4,-1,-1],
"feature": [1,-1,0,-1,-1],
"threshold": [1550.0,-1.0,755.0,-1.0,-1.0],
"value": [0.4488888888888889,0.02,0.792,0.08695652173913043,0.9509803921568627],
"node_sample_weight": [225.0,100.0,125.0,23.0,102.0]},
{"children_left": [1,-1,3,-1,-1],
"children_right": [2,-1,4,-1,-1],
"feature": [1,-1,2,-1,-1],
"threshold": [980.0,-1.0,825.0,-1.0,-1.0],
"value": [0.5244444444444445,0.03529411764705882,0.8214285714285714,0.14285714285714285,0.9411764705882353],
"node_sample_weight": [225.0,85.0,140.0,21.0,119.0]},
{"children_left": [1,-1,3,-1,-1],
"children_right": [2,-1,4,-1,-1],
"feature": [1,-1,2,-1,-1],
"threshold": [840.0,-1.0,802.5,-1.0,-1.0],
"value": [0.4711111111111111,0.010752688172043012,0.7954545454545454,0.0,0.9375],
"node_sample_weight": [225.0,93.0,132.0,20.0,112.0]},
{"children_left": [1,3,5,-1,7,-1,-1,-1,-1],
"children_right": [2,4,6,-1,8,-1,-1,-1,-1],
"feature": [4,1,1,-1,0,-1,-1,-1,-1],
"threshold": [25900.0,980.0,280.0,-1.0,370.0,-1.0,-1.0,-1.0,-1.0],
"value": [0.5333333333333333,0.15126050420168066,0.9622641509433962,0.0,0.391304347826087,0.0,1.0,0.04,0.8095238095238095],
"node_sample_weight": [225.0,119.0,106.0,73.0,46.0,4.0,102.0,25.0,21.0]},
{"children_left": [1,-1,3,5,-1,-1,-1],
"children_right": [2,-1,4,6,-1,-1,-1],
"feature": [1,-1,4,0,-1,-1,-1],
"threshold": [280.0,-1.0,32900.0,130.0,-1.0,-1.0,-1.0],
"value": [0.5333333333333333,0.0,0.8333333333333334,0.6190476190476191,1.0,0.23529411764705882,0.7608695652173914],
"node_sample_weight": [225.0,81.0,144.0,63.0,81.0,17.0,46.0]},
{"children_left": [1,-1,3,-1,-1],
"children_right": [2,-1,4,-1,-1],
"feature": [1,-1,0,-1,-1],
"threshold": [2100.0,-1.0,735.0,-1.0,-1.0],
"value": [0.4666666666666667,0.04716981132075472,0.8403361344537815,0.05263157894736842,0.99],
"node_sample_weight": [225.0,106.0,119.0,19.0,100.0]},
{"children_left": [1,-1,3,5,7,-1,-1,9,-1,-1,-1],
"children_right": [2,-1,4,6,8,-1,-1,10,-1,-1,-1],
"feature": [1,-1,0,6,1,-1,-1,1,-1,-1,-1],
"threshold": [980.0,-1.0,735.0,1110.0,12460.0,-1.0,-1.0,11480.0,-1.0,-1.0,-1.0],
"value": [0.4888888888888889,0.0,0.8527131782945736,0.16666666666666666,0.963963963963964,1.0,0.0625,0.9,1.0,0.9473684210526315,0.0],
"node_sample_weight": [225.0,96.0,129.0,18.0,111.0,2.0,16.0,40.0,71.0,38.0,2.0]},
{"children_left": [1,-1,3,-1,5,7,-1,-1,-1],
"children_right": [2,-1,4,-1,6,8,-1,-1,-1],
"feature": [1,-1,0,-1,4,1,-1,-1,-1],
"threshold": [280.0,-1.0,1205.0,-1.0,20020.0,9940.0,-1.0,-1.0,-1.0],
"value": [0.47555555555555556,0.0,0.8045112781954887,0.25,0.9523809523809523,0.75,0.9887640449438202,0.9230769230769231,0.0],
"node_sample_weight": [225.0,92.0,133.0,28.0,105.0,16.0,89.0,13.0,3.0]},
{"children_left": [1,-1,3,5,7,-1,-1,9,-1,-1,-1],
"children_right": [2,-1,4,6,8,-1,-1,10,-1,-1,-1],
"feature": [1,-1,0,6,4,-1,-1,2,-1,-1,-1],
"threshold": [980.0,-1.0,735.0,1040.0,32900.0,-1.0,-1.0,27591.65,-1.0,-1.0,-1.0],
"value": [0.48444444444444446,0.010526315789473684,0.8307692307692308,0.14285714285714285,0.963302752293578,1.0,0.0,0.84,1.0,0.9130434782608695,0.0],
"node_sample_weight": [225.0,95.0,130.0,21.0,109.0,3.0,18.0,25.0,84.0,23.0,2.0]},
{"children_left": [1,-1,3,-1,5,7,-1,-1,9,-1,-1],
"children_right": [2,-1,4,-1,6,8,-1,-1,10,-1,-1],
"feature": [1,-1,2,-1,4,3,-1,-1,3,-1,-1],
"threshold": [980.0,-1.0,709.69922,-1.0,53785.0,7708.75,-1.0,-1.0,8987.5,-1.0,-1.0],
"value": [0.4444444444444444,0.0,0.7936507936507936,0.05555555555555555,0.9166666666666666,0.8392857142857143,1.0,1.0,0.7096774193548387,0.0,0.8148148148148148],
"node_sample_weight": [225.0,99.0,126.0,18.0,108.0,56.0,52.0,25.0,31.0,4.0,27.0]},
{"children_left": [1,-1,3,-1,-1],
"children_right": [2,-1,4,-1,-1],
"feature": [1,-1,0,-1,-1],
"threshold": [980.0,-1.0,735.0,-1.0,-1.0],
"value": [0.5333333333333333,0.012048192771084338,0.8380281690140845,0.15,0.9508196721311475],
"node_sample_weight": [225.0,83.0,142.0,20.0,122.0]},
{"children_left": [1,-1,3,5,-1,-1,-1],
"children_right": [2,-1,4,6,-1,-1,-1],
"feature": [1,-1,0,1,-1,-1,-1],
"threshold": [130.0,-1.0,735.0,17920.0,-1.0,-1.0,-1.0],
"value": [0.49777777777777776,0.0,0.7619047619047619,0.09375,0.9478260869565217,0.034482758620689655,0.6666666666666666],
"node_sample_weight": [225.0,78.0,147.0,32.0,115.0,29.0,3.0]}
]
