[
{"children_left": [1,-1,3,5,-1,7,-1,-1,-1],
"children_right": [2,-1,4,6,-1,8,-1,-1,-1],
"feature": [1,-1,0,2,-1,6,-1,-1,-1],
"threshold": [980.0,-1.0,735.0,7003.898499999999,-1.0,2210.0,-1.0,-1.0,-1.0],
"value": [0.4964788732394366,0.0,0.8493975903614458,0.2962962962962963,0.9568345323741008,0.17391304347826086,1.0,1.0,0.05],
"node_sample_weight": [284.0,118.0,166.0,27.0,139.0,23.0,4.0,3.0,20.0]},
{"children_left": [1,3,5,-1,7,9,-1,-1,-1,-1,11,-1,-1],
"children_right": [2,4,6,-1,8,10,-1,-1,-1,-1,12,-1,-1],
"feature": [1,1,0,-1,0,6,-1,-1,-1,-1,2,-1,-1],
"threshold": [980.0,130.0,585.0,-1.0,4480.0,2210.0,-1.0,-1.0,-1.0,-1.0,9721.25,-1.0,-1.0],
"value": [0.49295774647887325,0.02654867256637168,0.8011695906432749,0.0,0.16666666666666666,0.2777777777777778,0.9407407407407408,0.0,0.6,1.0,0.07142857142857142,0.0,1.0],
"node_sample_weight": [284.0,113.0,171.0,95.0,18.0,36.0,135.0,13.0,5.0,8.0,28.0,26.0,2.0]},
{"children_left": [1,3,5,-1,7,9,11,-1,-1,13,-1,-1,-1,15,-1,-1,-1],
"children_right": [2,4,6,-1,8,10,12,-1,-1,14,-1,-1,-1,16,-1,-1,-1],
"feature": [1,1,0,-1,0,8,5,-1,-1,8,-1,-1,-1,6,-1,-1,-1],
"threshold": [840.0,130.0,585.0,-1.0,4580.0,24499.7795,4540.0,-1.0,-1.0,-0.133000015,-1.0,-1.0,-1.0,1050.0,-1.0,-1.0,-1.0],
"value": [0.4823943661971831,0.024193548387096774,0.8375,0.0,0.1875,0.26666666666666666,0.9692307692307692,0.0,0.75,0.42105263157894735,0.0,0.0,0.984375,0.21428571428571427,1.0,1.0,0.08333333333333333],
"node_sample_weight": [284.0,124.0,160.0,108.0,16.0,30.0,130.0,12.0,4.0,19.0,11.0,2.0,128.0,14.0,5.0,2.0,12.0]},
{"children_left": [1,3,5,-1,7,9,-1,-1,-1,11,-1,13,-1,-1,15,-1,-1],
"children_right": [2,4,6,-1,8,10,-1,-1,-1,12,-1,14,-1,-1,16,-1,-1],
"feature": [1,1,4,-1,0,3,-1,-1,-1,4,-1,6,-1,-1,7,-1,-1],
"threshold": [980.0,130.0,27185.0,-1.0,6335.0,11777.5,-1.0,-1.0,-1.0,5140.0,-1.0,1840.0,-1.0,-1.0,20417.754,-1.0,-1.0],
"value": [0.4894366197183099,0.02727272727272727,0.7816091954022989,0.0,0.17647058823529413,0.463768115942029,0.9904761904761905,0.0,1.0,0.6521739130434783,0.08695652173913043,0.3333333333333333,1.0,1.0,0.15789473684210525,1.0,0.0],
"node_sample_weight": [284.0,110.0,174.0,93.0,17.0,69.0,105.0,14.0,3.0,46.0,23.0,24.0,22.0,5.0,19.0,3.0,16.0]},
{"children_left": [1,3,5,-1,7,9,-1,-1,-1,-1,11,-1,13,-1,15,-1,-1],
"children_right": [2,4,6,-1,8,10,-1,-1,-1,-1,12,-1,14,-1,16,-1,-1],
"feature": [1,0,4,-1,1,6,-1,-1,-1,-1,0,-1,5,-1,2,-1,-1],
"threshold": [980.0,24920.0,20440.0,-1.0,130.0,2400.0,-1.0,-1.0,-1.0,-1.0,585.0,-1.0,4540.0,-1.0,10035.0,-1.0,-1.0],
"value": [0.4964788732394366,0.017543859649122806,0.8176470588235294,0.0,0.2857142857142857,0.515625,1.0,0.0,1.0,1.0,0.3541666666666667,0.04,0.6956521739130435,0.0,0.8421052631578947,1.0,0.5],
"node_sample_weight": [284.0,114.0,170.0,107.0,7.0,64.0,106.0,5.0,2.0,16.0,48.0,25.0,23.0,4.0,19.0,13.0,6.0]},
{"children_left": [1,-1,3,5,-1,-1,7,-1,9,-1,11,13,-1,15,-1,-1,-1],
"children_right": [2,-1,4,6,-1,-1,8,-1,10,-1,12,14,-1,16,-1,-1,-1],
"feature": [1,-1,4,6,-1,-1,0,-1,5,-1,3,8,-1,6,-1,-1,-1],
"threshold": [980.0,-1.0,26905.0,2510.0,-1.0,-1.0,585.0,-1.0,6880.0,-1.0,27715.0,-39200.996,-1.0,4300.0,-1.0,-1.0,-1.0],
"value": [0.49295774647887325,0.031496062992125984,0.8662420382165605,0.625,1.0,1.0,0.4878048780487805,0.0,0.6451612903225806,0.0,0.7407407407407407,0.8636363636363636,0.2,0.5714285714285714,1.0,1.0,0.0],
"node_sample_weight": [284.0,127.0,157.0,56.0,101.0,15.0,41.0,10.0,31.0,4.0,27.0,22.0,5.0,7.0,15.0,4.0,3.0]},
{"children_left": [1,-1,3,5,-1,-1,7,-1,-1],
"children_right": [2,-1,4,6,-1,-1,8,-1,-1],
"feature": [1,-1,0,6,-1,-1,2,-1,-1],
"threshold": [130.0,-1.0,755.0,780.0,-1.0,-1.0,9721.25,-1.0,-1.0],
"value": [0.4964788732394366,0.0,0.75,0.16326530612244897,0.9568345323741008,1.0,0.06818181818181818,0.023809523809523808,1.0],
"node_sample_weight": [284.0,96.0,188.0,49.0,139.0,5.0,44.0,42.0,2.0]},
{"children_left": [1,-1,3,5,7,-1,9,11,-1,-1,13,15,17,-1,-1,-1,-1,-1,19,-1,21,-1,-1],
"children_right": [2,-1,4,6,8,-1,10,12,-1,-1,14,16,18,-1,-1,-1,-1,-1,20,-1,22,-1,-1],
"feature": [1,-1,2,6,4,-1,0,4,-1,-1,0,6,5,-1,-1,-1,-1,-1,6,-1,1,-1,-1],
"threshold": [130.0,-1.0,1582.5,1720.0,33205.0,-1.0,755.0,4860.0,-1.0,-1.0,1270.0,90565.0,18377.498,-1.0,-1.0,-1.0,-1.0,-1.0,8630.0,-1.0,10920.0,-1.0,-1.0],
"value": [0.4753521126760563,0.0,0.7670454545454546,0.16666666666666666,0.9214285714285714,0.8,0.06451612903225806,0.8035714285714286,1.0,0.0,0.5,0.3333333333333333,0.86,1.0,0.0,0.0,1.0,1.0,0.75,1.0,0.5882352941176471,0.7142857142857143,0.0],
"node_sample_weight": [284.0,108.0,176.0,36.0,140.0,5.0,31.0,56.0,84.0,27.0,4.0,6.0,50.0,2.0,2.0,4.0,2.0,22.0,28.0,11.0,17.0,14.0,3.0]},
{"children_left": [1,3,5,-1,7,9,-1,-1,-1,-1,-1],
"children_right": [2,4,6,-1,8,10,-1,-1,-1,-1,-1],
"feature": [1,1,0,-1,0,6,-1,-1,-1,-1,-1],
"threshold": [980.0,130.0,585.0,-1.0,5775.0,1840.0,-1.0,-1.0,-1.0,-1.0,-1.0],
"value": [0.528169014084507,0.07017543859649122,0.8352941176470589,0.0,0.26666666666666666,0.25,0.9507042253521126,0.0,0.8888888888888888,1.0,0.045454545454545456],
"node_sample_weight": [284.0,114.0,170.0,84.0,30.0,28.0,142.0,21.0,9.0,6.0,22.0]},
{"children_left": [1,3,5,-1,7,9,11,-1,-1,-1,-1,13,-1,15,-1,-1,-1],
"children_right": [2,4,6,-1,8,10,12,-1,-1,-1,-1,14,-1,16,-1,-1,-1],
"feature": [1,1,0,-1,0,2,4,-1,-1,-1,-1,0,-1,3,-1,-1,-1],
"threshold": [1550.0,440.0,585.0,-1.0,5320.0,40.0,32900.0,-1.0,-1.0,-1.0,-1.0,26125.0,-1.0,27933.75,-1.0,-1.0,-1.0],
"value": [0.5211267605633803,0.04132231404958678,0.8773006134969326,0.0,0.20833333333333334,0.21428571428571427,0.9395973154362416,0.05,1.0,1.0,0.0,0.8421052631578947,1.0,0.9230769230769231,0.0,0.9591836734693877,0.3333333333333333],
"node_sample_weight": [284.0,121.0,163.0,97.0,24.0,14.0,149.0,20.0,4.0,3.0,11.0,57.0,92.0,52.0,5.0,49.0,3.0]},
{"children_left": [1,3,5,-1,7,9,-1,-1,-1,-1,-1],
"children_right": [2,4,6,-1,8,10,-1,-1,-1,-1,-1],
"feature": [1,1,0,-1,0,2,-1,-1,-1,-1,-1],
"threshold": [2520.0,280.0,585.0,-1.0,1910.0,7602.5,-1.0,-1.0,-1.0,-1.0,-1.0],
"value": [0.5035211267605634,0.05223880597014925,0.9066666666666666,0.0,0.175,0.3157894736842105,0.9923664122137404,0.03225806451612903,0.6666666666666666,0.1875,1.0],
"node_sample_weight": [284.0,134.0,150.0,94.0,40.0,19.0,131.0,31.0,9.0,16.0,3.0]},
{"children_left": [1,-1,3,5,-1,7,9,-1,-1,-1,11,-1,-1],
"children_right": [2,-1,4,6,-1,8,10,-1,-1,-1,12,-1,-1],
"feature": [1,-1,4,0,-1,2,3,-1,-1,-1,4,-1,-1],
"threshold": [980.0,-1.0,20020.0,585.0,-1.0,35.0,1302.5,-1.0,-1.0,-1.0,17665.0,-1.0,-1.0],
"value": [0.5211267605633803,0.03636363636363636,0.8275862068965517,0.5254237288135594,0.9826086956521739,0.21739130434782608,0.7222222222222222,1.0,0.1,0.0,0.8125,0.9285714285714286,0.0],
"node_sample_weight": [284.0,110.0,174.0,59.0,115.0,23.0,36.0,3.0,20.0,4.0,32.0,28.0,4.0]},
{"children_left": [1,-1,3,5,-1,-1,-1],
"children_right": [2,-1,4,6,-1,-1,-1],
"feature": [1,-1,0,6,-1,-1,-1],
"threshold": [980.0,-1.0,585.0,1530.0,-1.0,-1.0,-1.0],
"value": [0.5070422535211268,0.03508771929824561,0.8235294117647058,0.25,0.9366197183098591,1.0,0.045454545454545456],
"node_sample_weight": [284.0,114.0,170.0,28.0,142.0,6.0,22.0]},
{"children_left": [1,3,5,-1,7,-1,-1,9,-1,-1,-1],
"children_right": [2,4,6,-1,8,-1,-1,10,-1,-1,-1],
"feature": [1,1,0,-1,4,-1,-1,6,-1,-1,-1],
"threshold": [2670.0,130.0,585.0,-1.0,3870.0,-1.0,-1.0,1710.0,-1.0,-1.0,-1.0],
"value": [0.5211267605633803,0.1258741258741259,0.9219858156028369,0.0,0.4,0.4117647058823529,0.9919354838709677,0.16129032258064516,0.9285714285714286,0.5555555555555556,0.0],
"node_sample_weight": [284.0,143.0,141.0,98.0,45.0,17.0,124.0,31.0,14.0,9.0,22.0]},
{"children_left": [1,-1,3,5,-1,-1,-1],
"children_right": [2,-1,4,6,-1,-1,-1],
"feature": [1,-1,0,4,-1,-1,-1],
"threshold": [1400.0,-1.0,585.0,23650.0,-1.0,-1.0,-1.0],
"value": [0.4788732394366197,0.024193548387096774,0.83125,0.15384615384615385,0.9626865671641791,0.043478260869565216,1.0],
"node_sample_weight": [284.0,124.0,160.0,26.0,134.0,23.0,3.0]},
{"children_left": [1,-1,3,5,-1,-1,-1],
"children_right": [2,-1,4,6,-1,-1,-1],
"feature": [1,-1,4,2,-1,-1,-1],
"threshold": [980.0,-1.0,28280.0,765.0,-1.0,-1.0,-1.0],
"value": [0.5035211267605634,0.01680672268907563,0.8545454545454545,0.6521739130434783,1.0,0.1875,0.7924528301886793],
"node_sample_weight": [284.0,119.0,165.0,69.0,96.0,16.0,53.0]},
{"children_left": [1,-1,3,5,7,-1,-1,9,-1,11,-1,13,-1,-1,15,-1,-1],
"children_right": [2,-1,4,6,8,-1,-1,10,-1,12,-1,14,-1,-1,16,-1,-1],
"feature": [1,-1,0,6,1,-1,-1,8,-1,8,-1,5,-1,-1,3,-1,-1],
"threshold": [280.0,-1.0,585.0,910.0,12040.0,-1.0,-1.0,-0.39899998999999997,-1.0,-0.532000005,-1.0,3757.5,-1.0,-1.0,11552.5,-1.0,-1.0],
"value": [0.4753521126760563,0.0,0.7758620689655172,0.2702702702702703,0.9124087591240876,1.0,0.03571428571428571,0.8260869565217391,1.0,0.7317073170731707,0.9642857142857143,0.8108108108108109,0.0,0.0,0.8571428571428571,0.9629629629629629,0.5],
"node_sample_weight": [284.0,110.0,174.0,37.0,137.0,9.0,28.0,69.0,68.0,41.0,28.0,37.0,4.0,2.0,35.0,27.0,8.0]},
{"children_left": [1,-1,3,5,-1,7,-1,-1,-1],
"children_right": [2,-1,4,6,-1,8,-1,-1,-1],
"feature": [1,-1,4,0,-1,6,-1,-1,-1],
"threshold": [980.0,-1.0,23650.0,3150.0,-1.0,2030.0,-1.0,-1.0,-1.0],
"value": [0.5035211267605634,0.018018018018018018,0.815028901734104,0.5076923076923077,1.0,0.2682926829268293,0.9166666666666666,1.0,0.11764705882352941],
"node_sample_weight": [284.0,111.0,173.0,65.0,108.0,41.0,24.0,7.0,34.0]},
{"children_left": [1,3,-1,-1,5,-1,7,-1,-1],
"children_right": [2,4,-1,-1,6,-1,8,-1,-1],
"feature": [1,1,-1,-1,0,-1,7,-1,-1],
"threshold": [2670.0,130.0,-1.0,-1.0,3740.0,-1.0,819600.7,-1.0,-1.0],
"value": [0.5140845070422535,0.10218978102189781,0.8979591836734694,0.0,0.32558139534883723,0.0,0.7777777777777778,1.0,0.0],
"node_sample_weight": [284.0,137.0,147.0,94.0,43.0,25.0,18.0,14.0,4.0]},
{"children_left": [1,3,-1,-1,5,-1,-1],
"children_right": [2,4,-1,-1,6,-1,-1],
"feature": [1,1,-1,-1,4,-1,-1],
"threshold": [1960.0,130.0,-1.0,-1.0,2535.0,-1.0,-1.0],
"value": [0.5,0.058823529411764705,0.9054054054054054,0.0,0.25,0.041666666666666664,0.875],
"node_sample_weight": [284.0,136.0,148.0,104.0,32.0,24.0,8.0]},
{"children_left": [1,3,5,-1,7,-1,-1,-1,-1],
"children_right": [2,4,6,-1,8,-1,-1,-1,-1],
"feature": [1,1,0,-1,0,-1,-1,-1,-1],
"threshold": [2670.0,130.0,130.0,-1.0,3740.0,-1.0,-1.0,-1.0,-1.0],
"value": [0.5070422535211268,0.1111111111111111,0.9142857142857143,0.0,0.3404255319148936,0.23076923076923078,0.984251968503937,0.14705882352941177,0.8461538461538461],
"node_sample_weight": [284.0,144.0,140.0,97.0,47.0,13.0,127.0,34.0,13.0]},
{"children_left": [1,3,5,-1,7,-1,-1,-1,-1],
"children_right": [2,4,6,-1,8,-1,-1,-1,-1],
"feature": [1,0,0,-1,1,-1,-1,-1,-1],
"threshold": [980.0,28280.0,585.0,-1.0,130.0,-1.0,-1.0,-1.0,-1.0],
"value": [0.5140845070422535,0.05737704918032787,0.8580246913580247,0.0,0.5833333333333334,0.19047619047619047,0.9574468085106383,0.0,1.0],
"node_sample_weight": [284.0,122.0,162.0,110.0,12.0,21.0,141.0,5.0,7.0]},
{"children_left": [1,3,5,-1,7,9,11,13,-1,-1,-1,15,-1,-1,17,-1,19,-1,-1,-1,-1],
"children_right": [2,4,6,-1,8,10,12,14,-1,-1,-1,16,-1,-1,18,-1,20,-1,-1,-1,-1],
"feature": [1,1,0,-1,0,2,1,6,-1,-1,-1,5,-1,-1,7,-1,4,-1,-1,-1,-1],
"threshold": [2940.0,130.0,255.0,-1.0,15860.0,55.0,14280.0,1600.0,-1.0,-1.0,-1.0,37263.0,-1.0,-1.0,19601.595,-1.0,54040.0,-1.0,-1.0,-1.0,-1.0],
"value": [0.49295774647887325,0.11409395973154363,0.9111111111111111,0.0,0.3617021276595745,0.3333333333333333,0.967479674796748,0.23076923076923078,1.0,1.0,0.1111111111111111,0.9259259259259259,1.0,0.8333333333333334,0.12121212121212122,1.0,0.8260869565217391,1.0,0.03333333333333333,0.5,1.0],
"node_sample_weight": [284.0,149.0,135.0,102.0,47.0,12.0,123.0,39.0,8.0,3.0,9.0,54.0,69.0,6.0,33.0,31.0,23.0,3.0,30.0,8.0,15.0]},
{"children_left": [1,-1,3,-1,-1],
"children_right": [2,-1,4,-1,-1],
"feature": [1,-1,0,-1,-1],
"threshold": [980.0,-1.0,585.0,-1.0,-1.0],
"value": [0.5352112676056338,0.037383177570093455,0.8361581920903954,0.35294117647058826,0.951048951048951],
"node_sample_weight": [284.0,107.0,177.0,34.0,143.0]},
{"children_left": [1,-1,3,-1,5,7,-1,9,11,-1,-1,-1,-1],
"children_right": [2,-1,4,-1,6,8,-1,10,12,-1,-1,-1,-1],
"feature": [1,-1,0,-1,4,4,-1,3,6,-1,-1,-1,-1],
"threshold": [130.0,-1.0,585.0,-1.0,20300.0,18295.0,-1.0,1302.5,6310.0,-1.0,-1.0,-1.0,-1.0],
"value": [0.5211267605633803,0.0,0.783068783068783,0.3076923076923077,0.9066666666666666,0.75,0.9803921568627451,0.8717948717948718,0.2222222222222222,0.0,0.9444444444444444,1.0,0.0],
"node_sample_weight": [284.0,95.0,189.0,39.0,150.0,48.0,102.0,39.0,9.0,3.0,36.0,2.0,7.0]},
{"children_left": [1,-1,3,-1,5,-1,7,9,-1,-1,11,-1,-1],
"children_right": [2,-1,4,-1,6,-1,8,10,-1,-1,12,-1,-1],
"feature": [1,-1,0,-1,4,-1,4,5,-1,-1,6,-1,-1],
"threshold": [130.0,-1.0,735.0,-1.0,5315.0,-1.0,33205.0,37263.0,-1.0,-1.0,26300.0,-1.0,-1.0],
"value": [0.4647887323943662,0.0,0.7764705882352941,0.14285714285714285,0.9407407407407408,0.14285714285714285,0.984375,0.96,1.0,1.0,0.7777777777777778,0.0,1.0],
"node_sample_weight": [284.0,114.0,170.0,35.0,135.0,7.0,128.0,50.0,78.0,41.0,9.0,2.0,7.0]},
{"children_left": [1,-1,3,-1,-1],
"children_right": [2,-1,4,-1,-1],
"feature": [1,-1,0,-1,-1],
"threshold": [980.0,-1.0,755.0,-1.0,-1.0],
"value": [0.5070422535211268,0.01652892561983471,0.8711656441717791,0.41379310344827586,0.9701492537313433],
"node_sample_weight": [284.0,121.0,163.0,29.0,134.0]},
{"children_left": [1,3,5,-1,7,9,-1,-1,-1,-1,11,13,-1,-1,-1],
"children_right": [2,4,6,-1,8,10,-1,-1,-1,-1,12,14,-1,-1,-1],
"feature": [1,1,4,-1,0,6,-1,-1,-1,-1,7,1,-1,-1,-1],
"threshold": [980.0,130.0,19880.0,-1.0,5775.0,2820.0,-1.0,-1.0,-1.0,-1.0,24501.2845,10080.0,-1.0,-1.0,-1.0],
"value": [0.49295774647887325,0.025210084033613446,0.8303030303030303,0.0,0.13636363636363635,0.5535714285714286,0.9724770642201835,0.0,0.75,1.0,0.3902439024390244,0.8,0.15384615384615385,1.0,0.0],
"node_sample_weight": [284.0,119.0,165.0,97.0,22.0,56.0,109.0,18.0,4.0,15.0,41.0,15.0,26.0,12.0,3.0]},
{"children_left": [1,3,5,-1,-1,-1,7,-1,-1],
"children_right": [2,4,6,-1,-1,-1,8,-1,-1],
"feature": [1,6,0,-1,-1,-1,4,-1,-1],
"threshold": [980.0,780.0,585.0,-1.0,-1.0,-1.0,4960.0,-1.0,-1.0],
"value": [0.5070422535211268,0.024793388429752067,0.8650306748466258,1.0,0.0,0.2222222222222222,0.9448275862068966,0.2,0.9714285714285714],
"node_sample_weight": [284.0,121.0,163.0,3.0,118.0,18.0,145.0,5.0,140.0]},
{"children_left": [1,-1,3,5,-1,-1,7,9,-1,-1,-1],
"children_right": [2,-1,4,6,-1,-1,8,10,-1,-1,-1],
"feature": [1,-1,0,6,-1,-1,7,5,-1,-1,-1],
"threshold": [980.0,-1.0,2620.0,2450.0,-1.0,-1.0,39200.8965,11380.0,-1.0,-1.0,-1.0],
"value": [0.45774647887323944,0.007936507936507936,0.8164556962025317,0.4583333333333333,0.9727272727272728,1.0,0.16129032258064516,0.625,0.0,0.0,1.0],
"node_sample_weight": [284.0,126.0,158.0,48.0,110.0,17.0,31.0,8.0,23.0,3.0,5.0]},
{"children_left": [1,-1,3,5,-1,-1,7,-1,-1],
"children_right": [2,-1,4,6,-1,-1,8,-1,-1],
"feature": [1,-1,4,6,-1,-1,2,-1,-1],
"threshold": [980.0,-1.0,23695.0,2520.0,-1.0,-1.0,4550.0,-1.0,-1.0],
"value": [0.4859154929577465,0.015873015873015872,0.8607594936708861,0.6037735849056604,0.9904761904761905,1.0,0.43243243243243246,0.05555555555555555,0.7894736842105263],
"node_sample_weight": [284.0,126.0,158.0,53.0,105.0,16.0,37.0,18.0,19.0]},
{"children_left": [1,3,5,-1,7,9,-1,-1,-1,11,13,15,-1,-1,17,-1,-1,-1,-1],
"children_right": [2,4,6,-1,8,10,-1,-1,-1,12,14,16,-1,-1,18,-1,-1,-1,-1],
"feature": [1,7,4,-1,0,0,-1,-1,-1,3,1,1,-1,-1,3,-1,-1,-1,-1],
"threshold": [980.0,39202.085,23650.0,-1.0,6185.0,585.0,-1.0,-1.0,-1.0,9581.25,2600.0,5320.0,-1.0,-1.0,27716.25,-1.0,-1.0,-1.0,-1.0],
"value": [0.5070422535211268,0.04201680672268908,0.8424242424242424,0.0,0.3333333333333333,0.5873015873015873,1.0,0.0,1.0,0.2962962962962963,0.8055555555555556,0.47058823529411764,0.0,0.2857142857142857,0.9310344827586207,0.25,1.0,1.0,0.0],
"node_sample_weight": [284.0,119.0,165.0,104.0,15.0,63.0,102.0,10.0,5.0,27.0,36.0,17.0,10.0,7.0,29.0,12.0,5.0,27.0,2.0]},
{"children_left": [1,-1,3,5,7,-1,9,11,-1,-1,-1,13,-1,-1,15,-1,-1],
"children_right": [2,-1,4,6,8,-1,10,12,-1,-1,-1,14,-1,-1,16,-1,-1],
"feature": [1,-1,0,2,1,-1,7,8,-1,-1,-1,6,-1,-1,6,-1,-1],
"threshold": [980.0,-1.0,735.0,22.5,12460.0,-1.0,2.4985,-0.39899992500000003,-1.0,-1.0,-1.0,4460.0,-1.0,-1.0,35460.0,-1.0,-1.0],
"value": [0.49295774647887325,0.018018018018018018,0.7976878612716763,0.21212121212121213,0.9357142857142857,1.0,0.10344827586206896,0.8656716417910447,1.0,1.0,0.037037037037037035,0.71875,1.0,0.9473684210526315,0.38461538461538464,0.1111111111111111,1.0],
"node_sample_weight": [284.0,111.0,173.0,33.0,140.0,4.0,29.0,67.0,73.0,2.0,27.0,32.0,35.0,19.0,13.0,9.0,4.0]},
{"children_left": [1,-1,3,-1,-1],
"children_right": [2,-1,4,-1,-1],
"feature": [1,-1,0,-1,-1],
"threshold": [2100.0,-1.0,130.0,-1.0,-1.0],
"value": [0.4788732394366197,0.047244094488188976,0.8280254777070064,0.05,0.9416058394160584],
"node_sample_weight": [284.0,127.0,157.0,20.0,137.0]},
{"children_left": [1,3,5,-1,7,-1,-1,-1,-1],
"children_right": [2,4,6,-1,8,-1,-1,-1,-1],
"feature": [1,1,0,-1,5,-1,-1,-1,-1],
"threshold": [2600.0,130.0,130.0,-1.0,17953.75,-1.0,-1.0,-1.0,-1.0],
"value": [0.5,0.09523809523809523,0.9343065693430657,0.0,0.3333333333333333,0.45454545454545453,0.9761904761904762,0.125,1.0],
"node_sample_weight": [284.0,147.0,137.0,105.0,42.0,11.0,126.0,32.0,10.0]},
{"children_left": [1,3,5,-1,7,-1,9,-1,-1,11,-1,13,-1,-1,-1],
"children_right": [2,4,6,-1,8,-1,10,-1,-1,12,-1,14,-1,-1,-1],
"feature": [1,0,0,-1,1,-1,1,-1,-1,1,-1,7,-1,-1,-1],
"threshold": [980.0,28280.0,585.0,-1.0,130.0,-1.0,6020.0,-1.0,-1.0,5740.0,-1.0,2.66,-1.0,-1.0,-1.0],
"value": [0.5035211267605634,0.02564102564102564,0.8383233532934131,0.0,0.3,0.32142857142857145,0.9424460431654677,0.0,1.0,0.8048780487804879,1.0,0.8461538461538461,0.0,0.42857142857142855,0.9375],
"node_sample_weight": [284.0,117.0,167.0,107.0,10.0,28.0,139.0,7.0,3.0,41.0,98.0,39.0,2.0,7.0,32.0]},
{"children_left": [1,3,5,-1,7,-1,9,11,-1,13,-1,-1,-1,-1,-1],
"children_right": [2,4,6,-1,8,-1,10,12,-1,14,-1,-1,-1,-1,-1],
"feature": [1,1,0,-1,0,-1,1,6,-1,1,-1,-1,-1,-1,-1],
"threshold": [2660.0,130.0,735.0,-1.0,15860.0,-1.0,6020.0,1600.0,-1.0,5740.0,-1.0,-1.0,-1.0,-1.0,-1.0],
"value": [0.44366197183098594,0.08227848101265822,0.8968253968253969,0.0,0.2826086956521739,0.2727272727272727,0.9565217391304348,0.08333333333333333,1.0,0.7619047619047619,1.0,1.0,0.0,0.8421052631578947,0.0],
"node_sample_weight": [284.0,158.0,126.0,112.0,46.0,11.0,115.0,36.0,10.0,21.0,94.0,3.0,33.0,19.0,2.0]},
{"children_left": [1,3,5,-1,7,9,11,13,-1,-1,-1,15,-1,17,-1,-1,-1,-1,-1],
"children_right": [2,4,6,-1,8,10,12,14,-1,-1,-1,16,-1,18,-1,-1,-1,-1,-1],
"feature": [1,1,0,-1,0,3,1,6,-1,-1,-1,3,-1,1,-1,-1,-1,-1,-1],
"threshold": [2670.0,150.0,130.0,-1.0,5215.0,8729.4005,12040.0,2040.0,-1.0,-1.0,-1.0,11920.0,-1.0,980.0,-1.0,-1.0,-1.0,-1.0,-1.0],
"value": [0.4471830985915493,0.09090909090909091,0.8692307692307693,0.0,0.2641509433962264,0.21052631578947367,0.9819819819819819,0.11363636363636363,1.0,0.75,0.06666666666666667,0.9534883720930233,1.0,0.4444444444444444,0.02857142857142857,1.0,0.3333333333333333,0.0,1.0],
"node_sample_weight": [284.0,154.0,130.0,101.0,53.0,19.0,111.0,44.0,9.0,4.0,15.0,43.0,68.0,9.0,35.0,40.0,3.0,5.0,4.0]},
{"children_left": [1,3,5,-1,7,9,11,-1,-1,13,-1,15,-1,-1,-1,-1,17,-1,-1],
"children_right": [2,4,6,-1,8,10,12,-1,-1,14,-1,16,-1,-1,-1,-1,18,-1,-1],
"feature": [1,1,0,-1,5,8,1,-1,-1,1,-1,6,-1,-1,-1,-1,6,-1,-1],
"threshold": [1350.0,130.0,585.0,-1.0,6828.75,19600.6639999,12040.0,-1.0,-1.0,27160.0,-1.0,4300.0,-1.0,-1.0,-1.0,-1.0,8860.0,-1.0,-1.0],
"value": [0.5035211267605634,0.032520325203252036,0.8633540372670807,0.0,0.16666666666666666,0.34615384615384615,0.9629629629629629,0.0,1.0,0.6,0.0,0.9019607843137255,1.0,0.4,1.0,1.0,0.7619047619047619,0.0,0.8421052631578947],
"node_sample_weight": [284.0,123.0,161.0,99.0,24.0,26.0,135.0,20.0,4.0,15.0,11.0,51.0,84.0,10.0,5.0,30.0,21.0,2.0,19.0]},
{"children_left": [1,-1,3,5,-1,7,-1,-1,9,-1,11,13,-1,-1,-1],
"children_right": [2,-1,4,6,-1,8,-1,-1,10,-1,12,14,-1,-1,-1],
"feature": [1,-1,4,6,-1,6,-1,-1,0,-1,2,1,-1,-1,-1],
"threshold": [980.0,-1.0,28280.0,34520.0,-1.0,2730.0,-1.0,-1.0,1015.0,-1.0,9875.0,2520.0,-1.0,-1.0,-1.0],
"value": [0.4964788732394366,0.01818181818181818,0.7988505747126436,0.5394736842105263,1.0,0.38596491228070173,1.0,0.8947368421052632,0.13157894736842105,0.0,0.2777777777777778,0.6666666666666666,0.08333333333333333,0.0,1.0],
"node_sample_weight": [284.0,110.0,174.0,76.0,98.0,57.0,19.0,19.0,38.0,20.0,18.0,6.0,12.0,2.0,4.0]},
{"children_left": [1,3,5,-1,7,-1,-1,-1,9,-1,-1],
"children_right": [2,4,6,-1,8,-1,-1,-1,10,-1,-1],
"feature": [1,6,0,-1,0,-1,-1,-1,1,-1,-1],
"threshold": [1550.0,790.0,585.0,-1.0,44240.0,-1.0,-1.0,-1.0,280.0,-1.0,-1.0],
"value": [0.4859154929577465,0.05343511450381679,0.8562091503267973,1.0,0.023622047244094488,0.30434782608695654,0.9538461538461539,0.0,0.5,0.0,1.0],
"node_sample_weight": [284.0,131.0,153.0,4.0,127.0,23.0,130.0,121.0,6.0,3.0,3.0]},
{"children_left": [1,3,5,-1,-1,7,9,-1,11,13,-1,-1,-1,15,-1,-1,-1],
"children_right": [2,4,6,-1,-1,8,10,-1,12,14,-1,-1,-1,16,-1,-1,-1],
"feature": [1,6,0,-1,-1,7,4,-1,2,4,-1,-1,-1,4,-1,-1,-1],
"threshold": [980.0,790.0,585.0,-1.0,-1.0,2.66,20300.0,-1.0,50.0,18150.0,-1.0,-1.0,-1.0,4860.0,-1.0,-1.0,-1.0],
"value": [0.5035211267605634,0.03418803418803419,0.8323353293413174,1.0,0.008771929824561403,0.3076923076923077,0.9290780141843972,1.0,0.14285714285714285,0.7714285714285715,0.9811320754716981,1.0,0.0,0.8928571428571429,0.2857142857142857,0.5,0.9583333333333334],
"node_sample_weight": [284.0,117.0,167.0,3.0,114.0,26.0,141.0,5.0,21.0,35.0,106.0,3.0,18.0,28.0,7.0,4.0,24.0]},
{"children_left": [1,3,5,-1,7,9,11,-1,-1,-1,-1,-1,-1],
"children_right": [2,4,6,-1,8,10,12,-1,-1,-1,-1,-1,-1],
"feature": [1,0,0,-1,1,6,5,-1,-1,-1,-1,-1,-1],
"threshold": [980.0,28280.0,755.0,-1.0,130.0,1840.0,5050.0,-1.0,-1.0,-1.0,-1.0,-1.0,-1.0],
"value": [0.49295774647887325,0.04838709677419355,0.8375,0.0,0.42857142857142855,0.25925925925925924,0.9548872180451128,0.0,1.0,1.0,0.047619047619047616,0.0,0.9694656488549618],
"node_sample_weight": [284.0,124.0,160.0,110.0,14.0,27.0,133.0,8.0,6.0,6.0,21.0,2.0,131.0]},
{"children_left": [1,3,5,-1,7,9,-1,-1,-1,-1,11,13,-1,-1,-1],
"children_right": [2,4,6,-1,8,10,-1,-1,-1,-1,12,14,-1,-1,-1],
"feature": [1,7,0,-1,0,2,-1,-1,-1,-1,7,1,-1,-1,-1],
"threshold": [980.0,39202.085,585.0,-1.0,6335.0,22.5,-1.0,-1.0,-1.0,-1.0,19602.9255002,10920.0,-1.0,-1.0,-1.0],
"value": [0.5140845070422535,0.04310344827586207,0.8392857142857143,0.0,0.3125,0.22727272727272727,0.9315068493150684,0.0,0.8333333333333334,1.0,0.10526315789473684,0.5,0.0,1.0,0.0],
"node_sample_weight": [284.0,116.0,168.0,100.0,16.0,22.0,146.0,10.0,6.0,3.0,19.0,4.0,15.0,2.0,2.0]},
{"children_left": [1,3,5,-1,7,9,11,-1,-1,-1,13,15,-1,-1,-1,-1,17,-1,-1],
"children_right": [2,4,6,-1,8,10,12,-1,-1,-1,14,16,-1,-1,-1,-1,18,-1,-1],
"feature": [1,1,0,-1,0,6,1,-1,-1,-1,2,3,-1,-1,-1,-1,3,-1,-1],
"threshold": [840.0,130.0,585.0,-1.0,5775.0,1050.0,12180.0,-1.0,-1.0,-1.0,7602.5,11917.5,-1.0,-1.0,-1.0,-1.0,16837.5,-1.0,-1.0],
"value": [0.5140845070422535,0.017543859649122806,0.8470588235294118,0.0,0.16666666666666666,0.2222222222222222,0.965034965034965,0.0,1.0,1.0,0.08695652173913043,0.9122807017543859,1.0,0.0,1.0,0.98,0.42857142857142855,0.0,1.0],
"node_sample_weight": [284.0,114.0,170.0,102.0,12.0,27.0,143.0,10.0,2.0,4.0,23.0,57.0,86.0,21.0,2.0,50.0,7.0,4.0,3.0]},
{"children_left": [1,-1,3,5,7,-1,9,-1,11,-1,13,15,-1,-1,-1,-1,-1],
"children_right": [2,-1,4,6,8,-1,10,-1,12,-1,14,16,-1,-1,-1,-1,-1],
"feature": [1,-1,4,6,0,-1,4,-1,1,-1,1,1,-1,-1,-1,-1,-1],
"threshold": [980.0,-1.0,20300.0,2720.0,130.0,-1.0,4860.0,-1.0,8960.0,-1.0,10340.0,8120.0,-1.0,-1.0,-1.0,-1.0,-1.0],
"value": [0.5140845070422535,0.035398230088495575,0.8304093567251462,0.5970149253731343,0.9807692307692307,0.9473684210526315,0.4583333333333333,0.75,0.99,0.0,0.6666666666666666,0.9473684210526315,1.0,0.875,0.1111111111111111,1.0,0.5],
"node_sample_weight": [284.0,113.0,171.0,67.0,104.0,19.0,48.0,4.0,100.0,15.0,33.0,19.0,81.0,24.0,9.0,17.0,2.0]},
{"children_left": [1,3,5,-1,7,9,11,-1,-1,-1,13,15,-1,-1,-1,17,-1,19,-1,-1,-1],
"children_right": [2,4,6,-1,8,10,12,-1,-1,-1,14,16,-1,-1,-1,18,-1,20,-1,-1,-1],
"feature": [1,1,0,-1,0,6,4,-1,-1,-1,7,0,-1,-1,-1,8,-1,0,-1,-1,-1],
"threshold": [980.0,150.0,755.0,-1.0,5140.0,1880.0,20300.0,-1.0,-1.0,-1.0,2.4985,9700.0,-1.0,-1.0,-1.0,-39199.866500000004,-1.0,2265.0,-1.0,-1.0,-1.0],
"value": [0.5176056338028169,0.01904761904761905,0.8100558659217877,0.0,0.13333333333333333,0.2222222222222222,0.958041958041958,0.0,1.0,1.0,0.06666666666666667,0.8235294117647058,1.0,1.0,0.0,0.9,0.25,0.6666666666666666,1.0,0.0,0.8571428571428571],
"node_sample_weight": [284.0,105.0,179.0,90.0,15.0,36.0,143.0,13.0,2.0,6.0,30.0,34.0,109.0,2.0,28.0,30.0,4.0,9.0,21.0,2.0,7.0]},
{"children_left": [1,3,5,-1,7,9,-1,-1,-1,-1,-1],
"children_right": [2,4,6,-1,8,10,-1,-1,-1,-1,-1],
"feature": [1,1,0,-1,0,6,-1,-1,-1,-1,-1],
"threshold": [2660.0,130.0,585.0,-1.0,20135.0,1500.0,-1.0,-1.0,-1.0,-1.0,-1.0],
"value": [0.44366197183098594,0.06,0.8731343283582089,0.0,0.2571428571428571,0.23809523809523808,0.9911504424778761,0.07142857142857142,1.0,1.0,0.058823529411764705],
"node_sample_weight": [284.0,150.0,134.0,115.0,35.0,21.0,113.0,28.0,7.0,4.0,17.0]},
{"children_left": [1,-1,3,5,-1,-1,-1],
"children_right": [2,-1,4,6,-1,-1,-1],
"feature": [1,-1,2,6,-1,-1,-1],
"threshold": [980.0,-1.0,754.69922,1910.0,-1.0,-1.0,-1.0],
"value": [0.49295774647887325,0.007874015748031496,0.8853503184713376,0.3181818181818182,0.9777777777777777,1.0,0.11764705882352941],
"node_sample_weight": [284.0,127.0,157.0,22.0,135.0,5.0,17.0]},
{"children_left": [1,-1,3,5,-1,-1,-1],
"children_right": [2,-1,4,6,-1,-1,-1],
"feature": [1,-1,0,6,-1,-1,-1],
"threshold": [980.0,-1.0,585.0,1050.0,-1.0,-1.0,-1.0],
"value": [0.49295774647887325,0.03305785123966942,0.8343558282208589,0.20833333333333334,0.9424460431654677,1.0,0.05],
"node_sample_weight": [284.0,121.0,163.0,24.0,139.0,4.0,20.0]},
{"children_left": [1,3,5,-1,7,-1,9,11,-1,13,-1,-1,-1,-1,15,17,-1,-1,-1],
"children_right": [2,4,6,-1,8,-1,10,12,-1,14,-1,-1,-1,-1,16,18,-1,-1,-1],
"feature": [1,1,2,-1,5,-1,4,2,-1,6,-1,-1,-1,-1,6,8,-1,-1,-1],
"threshold": [1960.0,130.0,689.69922,-1.0,8137.9015,-1.0,32900.0,10.0,-1.0,3900.0,-1.0,-1.0,-1.0,-1.0,30380.0,0.532000005,-1.0,-1.0,-1.0],
"value": [0.49295774647887325,0.07246376811594203,0.8904109589041096,0.0,0.25,0.1111111111111111,0.9416058394160584,0.06666666666666667,0.8,0.8545454545454545,1.0,1.0,0.0,1.0,0.7333333333333333,0.38461538461538464,1.0,0.1111111111111111,1.0],
"node_sample_weight": [284.0,138.0,146.0,98.0,40.0,9.0,137.0,30.0,10.0,55.0,82.0,2.0,28.0,25.0,30.0,13.0,17.0,9.0,4.0]},
{"children_left": [1,-1,3,-1,-1],
"children_right": [2,-1,4,-1,-1],
"feature": [1,-1,0,-1,-1],
"threshold": [980.0,-1.0,585.0,-1.0,-1.0],
"value": [0.5176056338028169,0.04310344827586207,0.8452380952380952,0.41379310344827586,0.935251798561151],
"node_sample_weight": [284.0,116.0,168.0,29.0,139.0]},
{"children_left": [1,-1,3,5,7,9,-1,-1,-1,11,-1,-1,-1],
"children_right": [2,-1,4,6,8,10,-1,-1,-1,12,-1,-1,-1],
"feature": [1,-1,0,6,5,6,-1,-1,-1,6,-1,-1,-1],
"threshold": [130.0,-1.0,585.0,3910.0,4677.5,3430.0,-1.0,-1.0,-1.0,1710.0,-1.0,-1.0,-1.0],
"value": [0.5035211267605634,0.0,0.772972972972973,0.175,0.9379310344827586,0.3684210526315789,0.0,0.16666666666666666,0.9712230215827338,0.2,1.0,1.0,0.0],
"node_sample_weight": [284.0,99.0,185.0,40.0,145.0,19.0,21.0,6.0,139.0,15.0,4.0,3.0,12.0]},
{"children_left": [1,-1,3,5,-1,-1,-1],
"children_right": [2,-1,4,6,-1,-1,-1],
"feature": [1,-1,0,1,-1,-1,-1],
"threshold": [1350.0,-1.0,755.0,25480.0,-1.0,-1.0,-1.0],
"value": [0.5070422535211268,0.0546875,0.8782051282051282,0.15789473684210525,0.9781021897810219,0.058823529411764705,1.0],
"node_sample_weight": [284.0,128.0,156.0,19.0,137.0,17.0,2.0]},
{"children_left": [1,-1,3,-1,-1],
"children_right": [2,-1,4,-1,-1],
"feature": [1,-1,0,-1,-1],
"threshold": [130.0,-1.0,1910.0,-1.0,-1.0],
"value": [0.5563380281690141,0.0,0.8315789473684211,0.42857142857142855,0.9716312056737588],
"node_sample_weight": [284.0,94.0,190.0,49.0,141.0]},
{"children_left": [1,-1,3,5,-1,-1,-1],
"children_right": [2,-1,4,6,-1,-1,-1],
"feature": [1,-1,0,6,-1,-1,-1],
"threshold": [130.0,-1.0,755.0,930.0,-1.0,-1.0,-1.0],
"value": [0.5140845070422535,0.0,0.8202247191011236,0.1724137931034483,0.9463087248322147,1.0,0.04],
"node_sample_weight": [284.0,106.0,178.0,29.0,149.0,4.0,25.0]},
{"children_left": [1,-1,3,5,-1,7,9,-1,-1,-1,-1],
"children_right": [2,-1,4,6,-1,8,10,-1,-1,-1,-1],
"feature": [1,-1,0,4,-1,6,6,-1,-1,-1,-1],
"threshold": [130.0,-1.0,2265.0,2585.0,-1.0,1700.0,2510.0,-1.0,-1.0,-1.0,-1.0],
"value": [0.4823943661971831,0.0,0.7653631284916201,0.30357142857142855,0.975609756097561,0.07407407407407407,0.5172413793103449,0.6666666666666666,0.0,1.0,0.3],
"node_sample_weight": [284.0,105.0,179.0,56.0,123.0,27.0,29.0,3.0,24.0,9.0,20.0]},
{"children_left": [1,-1,3,-1,5,7,-1,-1,-1],
"children_right": [2,-1,4,-1,6,8,-1,-1,-1],
"feature": [1,-1,0,-1,4,7,-1,-1,-1],
"threshold": [980.0,-1.0,585.0,-1.0,4860.0,179601.06850000002,-1.0,-1.0,-1.0],
"value": [0.4612676056338028,0.04580152671755725,0.8169934640522876,0.23333333333333334,0.959349593495935,0.6,0.9745762711864406,1.0,0.0],
"node_sample_weight": [284.0,131.0,153.0,30.0,123.0,5.0,118.0,3.0,2.0]},
{"children_left": [1,3,-1,-1,5,-1,-1],
"children_right": [2,4,-1,-1,6,-1,-1],
"feature": [1,1,-1,-1,0,-1,-1],
"threshold": [1960.0,130.0,-1.0,-1.0,6335.0,-1.0,-1.0],
"value": [0.5035211267605634,0.07317073170731707,0.8322981366459627,0.0,0.21428571428571427,0.10810810810810811,1.0],
"node_sample_weight": [284.0,123.0,161.0,81.0,42.0,37.0,5.0]},
{"children_left": [1,3,5,-1,7,-1,-1,9,-1,-1,11,-1,-1],
"children_right": [2,4,6,-1,8,-1,-1,10,-1,-1,12,-1,-1],
"feature": [1,1,0,-1,2,-1,-1,8,-1,-1,8,-1,-1],
"threshold": [2600.0,130.0,130.0,-1.0,16563.949,-1.0,-1.0,-39199.734,-1.0,-1.0,19600.265,-1.0,-1.0],
"value": [0.5105633802816901,0.09022556390977443,0.8807947019867549,0.0,0.34285714285714286,0.2,0.9558823529411765,0.17857142857142858,1.0,0.0,0.35714285714285715,0.8333333333333334,0.0],
"node_sample_weight": [284.0,133.0,151.0,98.0,35.0,15.0,136.0,28.0,7.0,14.0,14.0,6.0,8.0]},
{"children_left": [1,-1,3,5,-1,-1,-1],
"children_right": [2,-1,4,6,-1,-1,-1],
"feature": [1,-1,2,6,-1,-1,-1],
"threshold": [980.0,-1.0,1197.5,1880.0,-1.0,-1.0,-1.0],
"value": [0.46830985915492956,0.047244094488188976,0.8089171974522293,0.23529411764705882,0.967479674796748,1.0,0.07142857142857142],
"node_sample_weight": [284.0,127.0,157.0,34.0,123.0,6.0,28.0]},
{"children_left": [1,3,5,-1,7,9,11,-1,-1,13,-1,15,-1,-1,-1,-1,-1],
"children_right": [2,4,6,-1,8,10,12,-1,-1,14,-1,16,-1,-1,-1,-1,-1],
"feature": [1,1,4,-1,0,0,1,-1,-1,2,-1,3,-1,-1,-1,-1,-1],
"threshold": [980.0,130.0,21000.0,-1.0,4480.0,370.0,8680.0,-1.0,-1.0,22.5,-1.0,7472.5,-1.0,-1.0,-1.0,-1.0,-1.0],
"value": [0.5070422535211268,0.04040404040404041,0.7567567567567568,0.0,0.2222222222222222,0.4936708860759494,0.9528301886792453,0.0,1.0,0.09090909090909091,0.6491228070175439,0.8076923076923077,1.0,1.0,0.0,1.0,0.4444444444444444],
"node_sample_weight": [284.0,99.0,185.0,81.0,18.0,79.0,106.0,14.0,4.0,22.0,57.0,26.0,80.0,2.0,20.0,17.0,9.0]},
{"children_left": [1,-1,3,5,7,-1,-1,9,-1,-1,-1],
"children_right": [2,-1,4,6,8,-1,-1,10,-1,-1,-1],
"feature": [1,-1,0,6,4,-1,-1,4,-1,-1,-1],
"threshold": [980.0,-1.0,585.0,1050.0,28280.0,-1.0,-1.0,27805.0,-1.0,-1.0,-1.0],
"value": [0.4823943661971831,0.031007751937984496,0.8580645161290322,0.2608695652173913,0.9621212121212122,1.0,0.0,0.8809523809523809,1.0,0.925,0.0],
"node_sample_weight": [284.0,129.0,155.0,23.0,132.0,6.0,17.0,42.0,90.0,40.0,2.0]},
{"children_left": [1,3,5,-1,7,9,11,-1,-1,-1,-1,13,-1,15,-1,-1,-1],
"children_right": [2,4,6,-1,8,10,12,-1,-1,-1,-1,14,-1,16,-1,-1,-1],
"feature": [1,1,0,-1,0,4,4,-1,-1,-1,-1,0,-1,3,-1,-1,-1],
"threshold": [980.0,280.0,585.0,-1.0,6335.0,23650.0,18785.0,-1.0,-1.0,-1.0,-1.0,8885.0,-1.0,21498.75,-1.0,-1.0,-1.0],
"value": [0.4859154929577465,0.024390243902439025,0.8385093167701864,0.0,0.17647058823529413,0.3225806451612903,0.9615384615384616,0.0,1.0,0.125,1.0,0.8275862068965517,1.0,0.8888888888888888,0.0,0.96,0.0],
"node_sample_weight": [284.0,123.0,161.0,106.0,17.0,31.0,130.0,14.0,3.0,24.0,7.0,29.0,101.0,27.0,2.0,25.0,2.0]},
{"children_left": [1,3,5,-1,7,9,-1,-1,11,-1,13,-1,-1,15,-1,-1,-1],
"children_right": [2,4,6,-1,8,10,-1,-1,12,-1,14,-1,-1,16,-1,-1,-1],
"feature": [1,6,4,-1,0,3,-1,-1,1,-1,1,-1,-1,0,-1,-1,-1],
"threshold": [1350.0,780.0,28280.0,-1.0,24080.0,12190.0,-1.0,-1.0,280.0,-1.0,14710.0,-1.0,-1.0,7000.0,-1.0,-1.0,-1.0],
"value": [0.49295774647887325,0.06569343065693431,0.891156462585034,1.0,0.030303030303030304,0.7037037037037037,1.0,0.00819672131147541,0.3,0.9142857142857143,0.3157894736842105,0.0,1.0,0.13333333333333333,1.0,0.0,1.0],
"node_sample_weight": [284.0,137.0,147.0,5.0,132.0,54.0,93.0,122.0,10.0,35.0,19.0,7.0,3.0,15.0,4.0,13.0,2.0]},
{"children_left": [1,-1,3,5,-1,-1,7,9,-1,-1,-1],
"children_right": [2,-1,4,6,-1,-1,8,10,-1,-1,-1],
"feature": [1,-1,0,6,-1,-1,7,3,-1,-1,-1],
"threshold": [980.0,-1.0,735.0,1880.0,-1.0,-1.0,24501.2845,31377.5,-1.0,-1.0,-1.0],
"value": [0.4612676056338028,0.008333333333333333,0.7926829268292683,0.12903225806451613,0.9473684210526315,1.0,0.06896551724137931,0.4,0.0,1.0,0.0],
"node_sample_weight": [284.0,120.0,164.0,31.0,133.0,2.0,29.0,5.0,24.0,2.0,3.0]},
{"children_left": [1,3,-1,-1,5,-1,7,-1,-1],
"children_right": [2,4,-1,-1,6,-1,8,-1,-1],
"feature": [1,1,-1,-1,0,-1,1,-1,-1],
"threshold": [2670.0,130.0,-1.0,-1.0,4655.0,-1.0,2320.0,-1.0,-1.0],
"value": [0.4859154929577465,0.09929078014184398,0.8671328671328671,0.0,0.2857142857142857,0.10810810810810811,0.8333333333333334,1.0,0.0],
"node_sample_weight": [284.0,141.0,143.0,92.0,49.0,37.0,12.0,10.0,2.0]},
{"children_left": [1,-1,3,5,7,-1,-1,9,-1,-1,-1],
"children_right": [2,-1,4,6,8,-1,-1,10,-1,-1,-1],
"feature": [1,-1,2,6,0,-1,-1,3,-1,-1,-1],
"threshold": [130.0,-1.0,1287.5,1710.0,4760.0,-1.0,-1.0,1680.0,-1.0,-1.0,-1.0],
"value": [0.5140845070422535,0.0,0.8156424581005587,0.21875,0.9455782312925171,1.0,0.07407407407407407,0.7741935483870968,0.9913793103448276,0.0,0.8275862068965517],
"node_sample_weight": [284.0,105.0,179.0,32.0,147.0,5.0,27.0,31.0,116.0,2.0,29.0]},
{"children_left": [1,3,5,-1,7,9,-1,-1,-1,-1,-1],
"children_right": [2,4,6,-1,8,10,-1,-1,-1,-1,-1],
"feature": [1,0,0,-1,1,6,-1,-1,-1,-1,-1],
"threshold": [2100.0,21280.0,585.0,-1.0,130.0,1530.0,-1.0,-1.0,-1.0,-1.0,-1.0],
"value": [0.5422535211267606,0.09090909090909091,0.8773006134969326,0.027522935779816515,0.6666666666666666,0.23529411764705882,0.952054794520548,0.0,1.0,1.0,0.0],
"node_sample_weight": [284.0,121.0,163.0,109.0,12.0,17.0,146.0,4.0,8.0,4.0,13.0]},
{"children_left": [1,3,5,-1,7,9,-1,-1,11,-1,-1,-1,-1],
"children_right": [2,4,6,-1,8,10,-1,-1,12,-1,-1,-1,-1],
"feature": [1,1,0,-1,4,1,-1,-1,8,-1,-1,-1,-1],
"threshold": [2100.0,130.0,585.0,-1.0,2435.0,25480.0,-1.0,-1.0,-179600.13900000002,-1.0,-1.0,-1.0,-1.0],
"value": [0.5422535211267606,0.11450381679389313,0.9084967320261438,0.0,0.38461538461538464,0.23529411764705882,0.9926470588235294,0.045454545454545456,0.8235294117647058,0.07142857142857142,1.0,0.0,0.9333333333333333],
"node_sample_weight": [284.0,131.0,153.0,92.0,39.0,17.0,136.0,22.0,17.0,14.0,3.0,2.0,15.0]},
{"children_left": [1,3,5,-1,7,9,11,13,-1,-1,15,17,-1,-1,-1,-1,-1,-1,19,-1,-1],
"children_right": [2,4,6,-1,8,10,12,14,-1,-1,16,18,-1,-1,-1,-1,-1,-1,20,-1,-1],
"feature": [1,1,0,-1,0,3,4,6,-1,-1,4,5,-1,-1,-1,-1,-1,-1,2,-1,-1],
"threshold": [2670.0,130.0,585.0,-1.0,1855.0,6422.5,28280.0,1700.0,-1.0,-1.0,23650.0,25650.0,-1.0,-1.0,-1.0,-1.0,-1.0,-1.0,13935.0,-1.0,-1.0],
"value": [0.5105633802816901,0.125,0.8648648648648649,0.0,0.3617021276595745,0.2916666666666667,0.9758064516129032,0.09090909090909091,1.0,1.0,0.15,0.925,1.0,1.0,0.03225806451612903,0.0,1.0,1.0,0.7692307692307693,0.0,0.9090909090909091],
"node_sample_weight": [284.0,136.0,148.0,89.0,47.0,24.0,124.0,33.0,14.0,4.0,20.0,40.0,84.0,2.0,31.0,17.0,3.0,27.0,13.0,2.0,11.0]},
{"children_left": [1,3,5,-1,7,9,11,-1,-1,-1,13,15,-1,-1,-1,17,-1,-1,19,-1,-1],
"children_right": [2,4,6,-1,8,10,12,-1,-1,-1,14,16,-1,-1,-1,18,-1,-1,20,-1,-1],
"feature": [1,1,0,-1,0,2,1,-1,-1,-1,7,3,-1,-1,-1,6,-1,-1,4,-1,-1],
"threshold": [980.0,150.0,220.0,-1.0,4480.0,22.5,14280.0,-1.0,-1.0,-1.0,19603.0250002,27716.25,-1.0,-1.0,-1.0,2930.0,-1.0,-1.0,5980.0,-1.0,-1.0],
"value": [0.5070422535211268,0.016129032258064516,0.8875,0.0,0.16666666666666666,0.3888888888888889,0.9507042253521126,0.0,0.6666666666666666,1.0,0.21428571428571427,0.8985507246376812,1.0,0.6,0.0,0.9253731343283582,0.0,1.0,0.8611111111111112,0.0,0.9117647058823529],
"node_sample_weight": [284.0,124.0,160.0,112.0,12.0,18.0,142.0,9.0,3.0,4.0,14.0,69.0,73.0,5.0,9.0,67.0,2.0,31.0,36.0,2.0,34.0]},
{"children_left": [1,3,5,-1,7,-1,9,-1,-1,11,-1,-1,13,-1,-1],
"children_right": [2,4,6,-1,8,-1,10,-1,-1,12,-1,-1,14,-1,-1],
"feature": [1,1,0,-1,2,-1,1,-1,-1,3,-1,-1,0,-1,-1],
"threshold": [1270.0,130.0,755.0,-1.0,8245.0,-1.0,8960.0,-1.0,-1.0,8098.5995,-1.0,-1.0,26040.0,-1.0,-1.0],
"value": [0.528169014084507,0.05343511450381679,0.934640522875817,0.0,0.3333333333333333,0.36363636363636365,0.9788732394366197,0.06666666666666667,1.0,0.9285714285714286,1.0,1.0,0.625,1.0,0.25],
"node_sample_weight": [284.0,131.0,153.0,110.0,21.0,11.0,142.0,15.0,6.0,42.0,100.0,34.0,8.0,4.0,4.0]},
{"children_left": [1,-1,3,5,7,-1,9,11,-1,-1,13,-1,15,-1,-1,-1,-1],
"children_right": [2,-1,4,6,8,-1,10,12,-1,-1,14,-1,16,-1,-1,-1,-1],
"feature": [1,-1,0,1,4,-1,6,2,-1,-1,2,-1,0,-1,-1,-1,-1],
"threshold": [1350.0,-1.0,585.0,5320.0,32900.0,-1.0,4000.0,6304.25,-1.0,-1.0,5205.0,-1.0,5600.0,-1.0,-1.0,-1.0,-1.0],
"value": [0.5,0.007936507936507936,0.8924050632911392,0.38095238095238093,0.9708029197080292,0.0,0.6153846153846154,0.9298245614035088,1.0,1.0,0.2857142857142857,1.0,0.8260869565217391,0.0,1.0,0.3333333333333333,0.9],
"node_sample_weight": [284.0,126.0,158.0,21.0,137.0,8.0,13.0,57.0,80.0,6.0,7.0,34.0,23.0,5.0,2.0,3.0,20.0]},
{"children_left": [1,-1,3,5,-1,7,9,-1,-1,-1,-1],
"children_right": [2,-1,4,6,-1,8,10,-1,-1,-1,-1],
"feature": [1,-1,0,7,-1,1,6,-1,-1,-1,-1],
"threshold": [980.0,-1.0,585.0,24501.417999999998,-1.0,15960.0,1840.0,-1.0,-1.0,-1.0,-1.0],
"value": [0.4647887323943662,0.0,0.8198757763975155,0.3225806451612903,0.9384615384615385,0.8,0.09523809523809523,1.0,0.0,1.0,0.0],
"node_sample_weight": [284.0,123.0,161.0,31.0,130.0,10.0,21.0,8.0,2.0,2.0,19.0]},
{"children_left": [1,3,5,-1,7,-1,9,-1,11,13,-1,-1,-1,-1,-1],
"children_right": [2,4,6,-1,8,-1,10,-1,12,14,-1,-1,-1,-1,-1],
"feature": [1,6,0,-1,1,-1,1,-1,0,1,-1,-1,-1,-1,-1],
"threshold": [2100.0,1830.0,735.0,-1.0,980.0,-1.0,12460.0,-1.0,3640.0,11480.0,-1.0,-1.0,-1.0,-1.0,-1.0],
"value": [0.4964788732394366,0.08823529411764706,0.8716216216216216,0.8888888888888888,0.031496062992125984,0.07692307692307693,0.9481481481481482,0.0,0.2,0.8653846153846154,1.0,0.0,1.0,0.9375,0.0],
"node_sample_weight": [284.0,136.0,148.0,9.0,127.0,13.0,135.0,107.0,20.0,52.0,83.0,16.0,4.0,48.0,4.0]},
{"children_left": [1,-1,3,5,7,-1,-1,9,-1,11,13,-1,-1,-1,15,-1,-1],
"children_right": [2,-1,4,6,8,-1,-1,10,-1,12,14,-1,-1,-1,16,-1,-1],
"feature": [1,-1,0,6,1,-1,-1,3,-1,5,0,-1,-1,-1,0,-1,-1],
"threshold": [130.0,-1.0,585.0,910.0,8960.0,-1.0,-1.0,8098.5995,-1.0,4380.0,22680.0,-1.0,-1.0,-1.0,48465.0,-1.0,-1.0],
"value": [0.528169014084507,0.0,0.7894736842105263,0.12121212121212122,0.9299363057324841,1.0,0.0,0.8305084745762712,0.9897959183673469,0.9302325581395349,0.5625,0.3333333333333333,0.975,1.0,0.3,0.0,1.0],
"node_sample_weight": [284.0,94.0,190.0,33.0,157.0,4.0,29.0,59.0,98.0,43.0,16.0,3.0,40.0,6.0,10.0,7.0,3.0]},
{"children_left": [1,3,5,-1,7,-1,-1,-1,-1],
"children_right": [2,4,6,-1,8,-1,-1,-1,-1],
"feature": [1,1,0,-1,0,-1,-1,-1,-1],
"threshold": [1550.0,130.0,585.0,-1.0,4760.0,-1.0,-1.0,-1.0,-1.0],
"value": [0.5563380281690141,0.06086956521739131,0.893491124260355,0.0,0.3181818181818182,0.3684210526315789,0.96,0.0625,1.0],
"node_sample_weight": [284.0,115.0,169.0,93.0,22.0,19.0,150.0,16.0,6.0]},
{"children_left": [1,3,5,-1,7,9,11,-1,-1,-1,-1,13,-1,-1,15,-1,-1],
"children_right": [2,4,6,-1,8,10,12,-1,-1,-1,-1,14,-1,-1,16,-1,-1],
"feature": [1,1,0,-1,5,6,1,-1,-1,-1,-1,6,-1,-1,6,-1,-1],
"threshold": [1960.0,130.0,735.0,-1.0,17953.75,1500.0,14280.0,-1.0,-1.0,-1.0,-1.0,4460.0,-1.0,-1.0,8200.0,-1.0,-1.0],
"value": [0.4894366197183099,0.045112781954887216,0.8807947019867549,0.0,0.25,0.3333333333333333,0.9548872180451128,0.05263157894736842,1.0,1.0,0.07692307692307693,0.8928571428571429,1.0,1.0,0.76,0.3333333333333333,0.8947368421052632],
"node_sample_weight": [284.0,133.0,151.0,109.0,24.0,18.0,133.0,19.0,5.0,5.0,13.0,56.0,77.0,31.0,25.0,6.0,19.0]},
{"children_left": [1,-1,3,5,-1,-1,7,9,-1,-1,11,13,-1,-1,-1],
"children_right": [2,-1,4,6,-1,-1,8,10,-1,-1,12,14,-1,-1,-1],
"feature": [1,-1,4,2,-1,-1,0,0,-1,-1,4,6,-1,-1,-1],
"threshold": [980.0,-1.0,19095.0,397.5,-1.0,-1.0,9700.0,195.0,-1.0,-1.0,4860.0,2360.0,-1.0,-1.0,-1.0],
"value": [0.5352112676056338,0.008928571428571428,0.877906976744186,0.6226415094339622,0.9915966386554622,0.09090909090909091,0.7619047619047619,0.8421052631578947,0.0,0.0,0.8888888888888888,0.5714285714285714,0.9655172413793104,1.0,0.0],
"node_sample_weight": [284.0,112.0,172.0,53.0,119.0,11.0,42.0,38.0,4.0,2.0,36.0,7.0,29.0,4.0,3.0]},
{"children_left": [1,-1,3,-1,5,7,-1,9,-1,-1,-1],
"children_right": [2,-1,4,-1,6,8,-1,10,-1,-1,-1],
"feature": [1,-1,2,-1,4,3,-1,8,-1,-1,-1],
"threshold": [980.0,-1.0,748.75,-1.0,23695.0,27716.25,-1.0,-39200.996,-1.0,-1.0,-1.0],
"value": [0.45774647887323944,0.0,0.8074534161490683,0.0,0.9027777777777778,0.7291666666666666,0.9895833333333334,0.7954545454545454,0.0,0.5,1.0],
"node_sample_weight": [284.0,123.0,161.0,17.0,144.0,48.0,96.0,44.0,4.0,18.0,26.0]},
{"children_left": [1,-1,3,5,7,-1,-1,9,-1,11,-1,13,-1,-1,15,-1,17,-1,-1],
"children_right": [2,-1,4,6,8,-1,-1,10,-1,12,-1,14,-1,-1,16,-1,18,-1,-1],
"feature": [1,-1,0,6,1,-1,-1,8,-1,3,-1,5,-1,-1,6,-1,6,-1,-1],
"threshold": [840.0,-1.0,585.0,1840.0,12180.0,-1.0,-1.0,0.221666515,-1.0,11550.0,-1.0,4615.0,-1.0,-1.0,5320.0,-1.0,13880.0,-1.0,-1.0],
"value": [0.49295774647887325,0.008620689655172414,0.8273809523809523,0.3103448275862069,0.935251798561151,1.0,0.13043478260869565,0.8421052631578947,1.0,0.7352941176470589,1.0,0.8064516129032258,0.0,0.0,0.8620689655172413,1.0,0.7333333333333333,0.0,0.9166666666666666],
"node_sample_weight": [284.0,116.0,168.0,29.0,139.0,6.0,23.0,57.0,82.0,34.0,23.0,31.0,3.0,2.0,29.0,14.0,15.0,3.0,12.0]},
{"children_left": [1,-1,3,-1,-1],
"children_right": [2,-1,4,-1,-1],
"feature": [1,-1,0,-1,-1],
"threshold": [980.0,-1.0,585.0,-1.0,-1.0],
"value": [0.4647887323943662,0.008620689655172414,0.7797619047619048,0.20588235294117646,0.9253731343283582],
"node_sample_weight": [284.0,116.0,168.0,34.0,134.0]},
{"children_left": [1,3,5,-1,7,9,11,-1,-1,-1,13,15,-1,17,-1,-1,19,-1,21,-1,-1,-1,-1],
"children_right": [2,4,6,-1,8,10,12,-1,-1,-1,14,16,-1,18,-1,-1,20,-1,22,-1,-1,-1,-1],
"feature": [1,1,0,-1,0,6,4,-1,-1,-1,2,2,-1,0,-1,-1,8,-1,2,-1,-1,-1,-1],
"threshold": [980.0,130.0,2265.0,-1.0,5775.0,2450.0,28280.0,-1.0,-1.0,-1.0,7909.25,10973.75,-1.0,585.0,-1.0,-1.0,0.35466653,-1.0,2332.5,-1.0,-1.0,-1.0,-1.0],
"value": [0.5070422535211268,0.027522935779816515,0.8057142857142857,0.0,0.21428571428571427,0.38,0.976,0.0,0.6,1.0,0.225,0.9,1.0,0.08823529411764706,1.0,1.0,0.75,0.0,0.3333333333333333,0.4,1.0,1.0,0.0],
"node_sample_weight": [284.0,109.0,175.0,95.0,14.0,50.0,125.0,9.0,5.0,10.0,40.0,30.0,95.0,34.0,6.0,18.0,12.0,25.0,9.0,5.0,7.0,3.0,6.0]},
{"children_left": [1,3,5,-1,7,9,11,-1,-1,-1,-1,13,-1,-1,15,-1,-1],
"children_right": [2,4,6,-1,8,10,12,-1,-1,-1,-1,14,-1,-1,16,-1,-1],
"feature": [1,1,0,-1,0,1,1,-1,-1,-1,-1,6,-1,-1,6,-1,-1],
"threshold": [2100.0,130.0,585.0,-1.0,4655.0,9230.0,12180.0,-1.0,-1.0,-1.0,-1.0,4370.0,-1.0,-1.0,13880.0,-1.0,-1.0],
"value": [0.4753521126760563,0.06206896551724138,0.9064748201438849,0.0,0.2571428571428571,0.35714285714285715,0.968,0.07407407407407407,0.875,0.8333333333333334,0.0,0.92,1.0,1.0,0.8260869565217391,0.2,1.0],
"node_sample_weight": [284.0,145.0,139.0,110.0,35.0,14.0,125.0,27.0,8.0,6.0,8.0,50.0,75.0,27.0,23.0,5.0,18.0]},
{"children_left": [1,3,5,-1,7,9,-1,-1,-1,11,-1,-1,-1],
"children_right": [2,4,6,-1,8,10,-1,-1,-1,12,-1,-1,-1],
"feature": [1,1,0,-1,0,6,-1,-1,-1,8,-1,-1,-1],
"threshold": [2100.0,130.0,585.0,-1.0,2060.0,4000.0,-1.0,-1.0,-1.0,19600.531,-1.0,-1.0,-1.0],
"value": [0.4753521126760563,0.07746478873239436,0.8732394366197183,0.0,0.2391304347826087,0.30434782608695654,0.9831932773109243,0.029411764705882353,0.8333333333333334,0.6666666666666666,0.07142857142857142,1.0,0.0],
"node_sample_weight": [284.0,142.0,142.0,96.0,46.0,23.0,119.0,34.0,12.0,9.0,14.0,6.0,3.0]},
{"children_left": [1,3,5,-1,7,9,-1,-1,-1,-1,-1],
"children_right": [2,4,6,-1,8,10,-1,-1,-1,-1,-1],
"feature": [1,7,0,-1,0,3,-1,-1,-1,-1,-1],
"threshold": [980.0,39202.085,585.0,-1.0,5775.0,1950.0,-1.0,-1.0,-1.0,-1.0,-1.0],
"value": [0.49295774647887325,0.026785714285714284,0.7965116279069767,0.0,0.23076923076923078,0.3,0.946969696969697,0.0,1.0,1.0,0.2],
"node_sample_weight": [284.0,112.0,172.0,99.0,13.0,40.0,132.0,10.0,3.0,5.0,35.0]},
{"children_left": [1,3,5,7,-1,9,-1,-1,-1,11,-1,-1,-1],
"children_right": [2,4,6,8,-1,10,-1,-1,-1,12,-1,-1,-1],
"feature": [1,6,4,0,-1,0,-1,-1,-1,6,-1,-1,-1],
"threshold": [980.0,1830.0,23650.0,5775.0,-1.0,585.0,-1.0,-1.0,-1.0,1840.0,-1.0,-1.0,-1.0],
"value": [0.49295774647887325,0.04878048780487805,0.8322981366459627,0.45454545454545453,0.008928571428571428,0.5645161290322581,1.0,0.0,1.0,0.24,0.7837837837837838,1.0,0.0],
"node_sample_weight": [284.0,123.0,161.0,11.0,112.0,62.0,99.0,6.0,5.0,25.0,37.0,6.0,19.0]},
{"children_left": [1,3,5,-1,7,9,-1,-1,11,-1,-1,-1,-1],
"children_right": [2,4,6,-1,8,10,-1,-1,12,-1,-1,-1,-1],
"feature": [1,6,0,-1,0,8,-1,-1,1,-1,-1,-1,-1],
"threshold": [2100.0,780.0,585.0,-1.0,21560.0,-58800.665,-1.0,-1.0,280.0,-1.0,-1.0,-1.0,-1.0],
"value": [0.5070422535211268,0.06349206349206349,0.8607594936708861,1.0,0.024793388429752067,0.4,0.96875,0.0,0.2727272727272727,1.0,0.18181818181818182,0.0,1.0],
"node_sample_weight": [284.0,126.0,158.0,5.0,121.0,30.0,128.0,110.0,11.0,8.0,22.0,8.0,3.0]},
{"children_left": [1,3,5,-1,7,9,-1,-1,-1,-1,-1],
"children_right": [2,4,6,-1,8,10,-1,-1,-1,-1,-1],
"feature": [1,1,0,-1,0,6,-1,-1,-1,-1,-1],
"threshold": [980.0,130.0,585.0,-1.0,6335.0,1420.0,-1.0,-1.0,-1.0,-1.0,-1.0],
"value": [0.49295774647887325,0.03361344537815126,0.8242424242424242,0.0,0.2222222222222222,0.3793103448275862,0.9191176470588235,0.0,1.0,1.0,0.18181818181818182],
"node_sample_weight": [284.0,119.0,165.0,101.0,18.0,29.0,136.0,14.0,4.0,7.0,22.0]},
{"children_left": [1,-1,3,5,-1,-1,7,-1,-1],
"children_right": [2,-1,4,6,-1,-1,8,-1,-1],
"feature": [1,-1,0,6,-1,-1,2,-1,-1],
"threshold": [130.0,-1.0,585.0,1710.0,-1.0,-1.0,7003.898499999999,-1.0,-1.0],
"value": [0.49295774647887325,0.0,0.7777777777777778,0.18421052631578946,0.9366197183098591,1.0,0.06060606060606061,0.0,1.0],
"node_sample_weight": [284.0,104.0,180.0,38.0,142.0,5.0,33.0,31.0,2.0]},
{"children_left": [1,3,5,-1,7,9,11,-1,-1,-1,-1,13,-1,-1,-1],
"children_right": [2,4,6,-1,8,10,12,-1,-1,-1,-1,14,-1,-1,-1],
"feature": [1,1,0,-1,2,7,1,-1,-1,-1,-1,6,-1,-1,-1],
"threshold": [2100.0,130.0,755.0,-1.0,16563.949,58800.665,4760.0,-1.0,-1.0,-1.0,-1.0,10710.0,-1.0,-1.0,-1.0],
"value": [0.4647887323943662,0.05223880597014925,0.8333333333333334,0.0,0.21212121212121213,0.21739130434782608,0.9448818897637795,0.10344827586206896,1.0,0.1,1.0,0.75,0.9902912621359223,1.0,0.3333333333333333],
"node_sample_weight": [284.0,134.0,150.0,101.0,33.0,23.0,127.0,29.0,4.0,20.0,3.0,24.0,103.0,15.0,9.0]},
{"children_left": [1,-1,3,5,-1,-1,-1],
"children_right": [2,-1,4,6,-1,-1,-1],
"feature": [1,-1,0,7,-1,-1,-1],
"threshold": [1270.0,-1.0,735.0,2.4985,-1.0,-1.0,-1.0],
"value": [0.5176056338028169,0.048,0.8867924528301887,0.2,0.9856115107913669,0.75,0.0625],
"node_sample_weight": [284.0,125.0,159.0,20.0,139.0,4.0,16.0]},
{"children_left": [1,3,5,-1,7,-1,-1,9,11,13,-1,15,-1,-1,-1,-1,-1],
"children_right": [2,4,6,-1,8,-1,-1,10,12,14,-1,16,-1,-1,-1,-1,-1],
"feature": [1,1,0,-1,0,-1,-1,6,8,1,-1,0,-1,-1,-1,-1,-1],
"threshold": [2520.0,130.0,585.0,-1.0,1910.0,-1.0,-1.0,2030.0,-39200.2665,840.0,-1.0,21940.0,-1.0,-1.0,-1.0,-1.0,-1.0],
"value": [0.528169014084507,0.09774436090225563,0.9072847682119205,0.0,0.35135135135135137,0.3157894736842105,0.9924242424242424,0.08333333333333333,0.8461538461538461,0.4,0.0,0.5,1.0,0.0,1.0,0.0,1.0],
"node_sample_weight": [284.0,133.0,151.0,96.0,37.0,19.0,132.0,24.0,13.0,5.0,19.0,4.0,9.0,3.0,2.0,2.0,2.0]},
{"children_left": [1,-1,3,5,-1,7,9,-1,-1,-1,-1],
"children_right": [2,-1,4,6,-1,8,10,-1,-1,-1,-1],
"feature": [1,-1,0,7,-1,1,6,-1,-1,-1,-1],
"threshold": [150.0,-1.0,735.0,24501.2845,-1.0,10920.0,1710.0,-1.0,-1.0,-1.0,-1.0],
"value": [0.4507042253521127,0.0,0.7272727272727273,0.13043478260869565,0.9384615384615385,0.5714285714285714,0.05128205128205128,1.0,0.0,1.0,0.0],
"node_sample_weight": [284.0,108.0,176.0,46.0,130.0,7.0,39.0,4.0,3.0,2.0,37.0]},
{"children_left": [1,-1,3,-1,-1],
"children_right": [2,-1,4,-1,-1],
"feature": [1,-1,0,-1,-1],
"threshold": [980.0,-1.0,735.0,-1.0,-1.0],
"value": [0.4823943661971831,0.0390625,0.8461538461538461,0.3793103448275862,0.952755905511811],
"node_sample_weight": [284.0,128.0,156.0,29.0,127.0]},
{"children_left": [1,-1,3,5,7,-1,9,11,-1,13,-1,-1,15,-1,-1,-1,-1],
"children_right": [2,-1,4,6,8,-1,10,12,-1,14,-1,-1,16,-1,-1,-1,-1],
"feature": [1,-1,0,6,1,-1,7,6,-1,2,-1,-1,4,-1,-1,-1,-1],
"threshold": [130.0,-1.0,735.0,1710.0,14280.0,-1.0,24501.2845,2330.0,-1.0,870.83495,-1.0,-1.0,4860.0,-1.0,-1.0,-1.0,-1.0],
"value": [0.4788732394366197,0.0,0.7640449438202247,0.16216216216216217,0.9219858156028369,1.0,0.11428571428571428,0.8382352941176471,1.0,0.5,0.034482758620689655,1.0,0.75,1.0,0.25,0.0,0.8048780487804879],
"node_sample_weight": [284.0,106.0,178.0,37.0,141.0,2.0,35.0,68.0,73.0,6.0,29.0,24.0,44.0,2.0,4.0,3.0,41.0]},
{"children_left": [1,-1,3,5,7,-1,-1,-1,9,-1,11,13,-1,15,-1,-1,-1],
"children_right": [2,-1,4,6,8,-1,-1,-1,10,-1,12,14,-1,16,-1,-1,-1],
"feature": [1,-1,0,2,4,-1,-1,-1,6,-1,1,8,-1,6,-1,-1,-1],
"threshold": [130.0,-1.0,585.0,22.5,3870.0,-1.0,-1.0,-1.0,4460.0,-1.0,14280.0,0.532000005,-1.0,30380.0,-1.0,-1.0,-1.0],
"value": [0.5140845070422535,0.0,0.7807486631016043,0.21951219512195122,0.9383561643835616,1.0,0.08571428571428572,0.0,0.9513888888888888,1.0,0.9078947368421053,0.8372093023255814,1.0,0.7083333333333334,1.0,0.5,1.0],
"node_sample_weight": [284.0,97.0,187.0,41.0,146.0,6.0,35.0,2.0,144.0,68.0,76.0,43.0,33.0,24.0,19.0,14.0,10.0]},
{"children_left": [1,-1,3,-1,5,-1,7,9,-1,-1,11,-1,-1],
"children_right": [2,-1,4,-1,6,-1,8,10,-1,-1,12,-1,-1],
"feature": [1,-1,4,-1,0,-1,4,5,-1,-1,5,-1,-1],
"threshold": [130.0,-1.0,5140.0,-1.0,130.0,-1.0,32900.0,36819.648499999996,-1.0,-1.0,42452.5,-1.0,-1.0],
"value": [0.5528169014084507,0.0,0.7929292929292929,0.04,0.9017341040462428,0.3333333333333333,0.967741935483871,0.9122807017543859,1.0,0.9791666666666666,0.5555555555555556,0.0,1.0],
"node_sample_weight": [284.0,86.0,198.0,25.0,173.0,18.0,155.0,57.0,98.0,48.0,9.0,4.0,5.0]},
{"children_left": [1,-1,3,5,7,-1,-1,-1,9,11,-1,-1,-1],
"children_right": [2,-1,4,6,8,-1,-1,-1,10,12,-1,-1,-1],
"feature": [1,-1,4,6,0,-1,-1,-1,7,7,-1,-1,-1],
"threshold": [130.0,-1.0,5320.0,1600.0,130.0,-1.0,-1.0,-1.0,3.3516002,3.0856001,-1.0,-1.0,-1.0],
"value": [0.4788732394366197,0.0,0.7513812154696132,0.13157894736842105,0.916083916083916,0.75,0.058823529411764705,0.3333333333333333,0.9694656488549618,0.8857142857142857,1.0,0.9393939393939394,0.0],
"node_sample_weight": [284.0,103.0,181.0,38.0,143.0,4.0,34.0,12.0,131.0,35.0,96.0,33.0,2.0]}
]
